{"learner":{"attributes":{"best_iteration":"47","best_score":"0.9754892098288094"},"feature_names":["image_score","age","density","implant","site_id"],"feature_types":["float","float","float","int","int"],"gradient_booster":{"model":{"cats":{"enc":[],"feature_segments":[],"sorted_idx":[]},"gbtree_model_param":{"num_parallel_tree":"1","num_trees":"98"},"iteration_indptr":[0,1,2,3,4,5,6,7,8,9,10,11,12,13,14,15,16,17,18,19,20,21,22,23,24,25,26,27,28,29,30,31,32,33,34,35,36,37,38,39,40,41,42,43,44,45,46,47,48,49,50,51,52,53,54,55,56,57,58,59,60,61,62,63,64,65,66,67,68,69,70,71,72,73,74,75,76,77,78,79,80,81,82,83,84,85,86,87,88,89,90,91,92,93,94,95,96,97,98],"tree_info":[0,0,0,0,0,0,0,0,0,0,0,0,0,0,0,0,0,0,0,0,0,0,0,0,0,0,0,0,0,0,0,0,0,0,0,0,0,0,0,0,0,0,0,0,0,0,0,0,0,0,0,0,0,0,0,0,0,0,0,0,0,0,0,0,0,0,0,0,0,0,0,0,0,0,0,0,0,0,0,0,0,0,0,0,0,0,0,0,0,0,0,0,0,0,0,0,0,0],"trees":[{"base_weights":[-5.328664E-3,-7.9898876E-1,2.8679941E1,-9.042093E-1,1.9011626E0,5.950857E-1,1.6877409E0,-4.813164E-2,-2.2489509E-2,2.6375046E-2,1.2174038E-1],"categories":[],"categories_nodes":[],"categories_segments":[],"categories_sizes":[],"default_left":[0,0,0,0,0,0,0,0,0,0,0],"id":0,"left_children":[1,3,5,7,9,-1,-1,-1,-1,-1,-1],"loss_changes":[7.061354E3,8.7466446E1,3.0929102E2,7.2971344E0,7.2499275E0,0E0,0E0,0E0,0E0,0E0,0E0],"parents":[2147483647,0,0,1,1,2,2,3,3,4,4],"right_children":[2,4,6,8,10,-1,-1,-1,-1,-1,-1],"split_conditions":[5.2479464E-1,1.4697139E-1,7.12188E-1,2.5871161E-2,2.1009493E-1,5.950857E-1,1.6877409E0,-4.813164E-2,-2.2489509E-2,2.6375046E-2,1.2174038E-1],"split_indices":[0,0,0,0,0,0,0,0,0,0,0],"split_type":[0,0,0,0,0,0,0,0,0,0,0],"sum_hessian":[3.0815967E2,3.0080908E2,7.3505974E0,2.9016687E2,1.0642211E1,2.4838557E0,4.8667417E0,2.5611987E2,3.4046997E1,3.533941E0,7.10827E0],"tree_param":{"num_deleted":"0","num_feature":"5","num_nodes":"11","size_leaf_vector":"1"}},{"base_weights":[-6.8631895E-2,-7.8212017E-1,3.889436E-1,-8.832741E-1,1.4357802E0,-4.7124278E-2,-2.127961E-2,-1.8107713E-3,1.19441204E-1],"categories":[],"categories_nodes":[],"categories_segments":[],"categories_sizes":[],"default_left":[0,0,0,0,0,0,0,0,0],"id":1,"left_children":[1,3,-1,5,7,-1,-1,-1,-1],"loss_changes":[1.7709515E3,6.6294556E1,0E0,7.127823E0,1.8356846E1,0E0,0E0,0E0,0E0],"parents":[2147483647,0,0,1,1,3,3,4,4],"right_children":[2,4,-1,6,8,-1,-1,-1,-1],"split_conditions":[5.2479464E-1,1.4697139E-1,3.889436E-1,2.5871161E-2,6.1E1,-4.7124278E-2,-2.127961E-2,-1.8107713E-3,1.19441204E-1],"split_indices":[0,0,0,0,1,0,0,0,0],"split_type":[0,0,0,0,0,0,0,0,0],"sum_hessian":[3.1420544E2,2.888443E2,2.5361141E1,2.7682083E2,1.2023481E1,2.4417238E2,3.2648453E1,5.103312E0,6.9201694E0],"tree_param":{"num_deleted":"0","num_feature":"5","num_nodes":"9","size_leaf_vector":"1"}},{"base_weights":[-2.3700378E-3,-7.778341E-1,5.5673766E0,-8.6895525E-1,1.2920921E0,6.7676775E-2,2.8253803E-1,-4.6897978E-2,-1.7612183E-2,-6.353795E-3,1.0910224E-1],"categories":[],"categories_nodes":[],"categories_segments":[],"categories_sizes":[],"default_left":[0,0,0,0,0,0,0,0,0,0,0],"id":2,"left_children":[1,3,5,7,9,-1,-1,-1,-1,-1,-1],"loss_changes":[1.3646935E3,5.343428E1,5.9195557E0,9.162842E0,1.55550785E1,0E0,0E0,0E0,0E0,0E0,0E0],"parents":[2147483647,0,0,1,1,2,2,3,3,4,4],"right_children":[2,4,6,8,10,-1,-1,-1,-1,-1,-1],"split_conditions":[4.2536747E-1,1.4697139E-1,4.3E1,2.5871161E-2,6.1E1,6.7676775E-2,2.8253803E-1,-4.6897978E-2,-1.7612183E-2,-6.353795E-3,1.0910224E-1],"split_indices":[0,0,1,0,1,0,0,0,0,0,0],"split_type":[0,0,0,0,0,0,0,0,0,0,0],"sum_hessian":[3.1396164E2,2.763468E2,3.7614838E1,2.652503E2,1.1096504E1,1.0642653E0,3.655057E1,2.3328146E2,3.1968843E1,4.607053E0,6.4894514E0],"tree_param":{"num_deleted":"0","num_feature":"5","num_nodes":"11","size_leaf_vector":"1"}},{"base_weights":[-3.9282847E-2,-2.8625864E-1,6.939697E-1,-5.0537246E-1,-1.05639435E-1,3.930894E-1,1.0545905E0,-3.3938706E-2,-2.2183998E-2,-1.1963624E-2,7.0697665E-3,2.3537686E-2,-1.891516E-2,5.692413E-2,-1.6243642E-2],"categories":[],"categories_nodes":[],"categories_segments":[],"categories_sizes":[],"default_left":[1,1,0,1,0,0,0,0,0,0,0,0,0,0,0],"id":3,"left_children":[1,3,5,7,9,11,13,-1,-1,-1,-1,-1,-1,-1,-1],"loss_changes":[5.700511E1,9.261082E0,8.192673E0,8.336525E-1,4.3344536E0,2.864407E0,4.476639E0,0E0,0E0,0E0,0E0,0E0,0E0,0E0,0E0],"parents":[2147483647,0,0,1,1,2,2,3,3,4,4,5,5,6,6],"right_children":[2,4,6,8,10,12,14,-1,-1,-1,-1,-1,-1,-1,-1],"split_conditions":[6.7E1,5.5E1,1E0,4.5E1,1E0,7.7E1,8.4E1,-3.3938706E-2,-2.2183998E-2,-1.1963624E-2,7.0697665E-3,2.3537686E-2,-1.891516E-2,5.692413E-2,-1.6243642E-2],"split_indices":[1,1,2,1,2,1,1,0,0,0,0,0,0,0,0],"split_type":[0,0,0,0,0,0,0,0,0,0,0,0,0,0,0],"sum_hessian":[3.1268207E2,2.3435551E2,7.832655E1,1.05081024E2,1.2927449E2,4.3839516E1,3.4487034E1,2.4950134E1,8.013089E1,8.391321E1,4.536128E1,4.0183548E1,3.655968E0,3.2674618E1,1.812417E0],"tree_param":{"num_deleted":"0","num_feature":"5","num_nodes":"15","size_leaf_vector":"1"}},{"base_weights":[-3.503712E-2,-8.0308574E-1,4.204398E0,-8.8459796E-1,1.1252154E0,1.8268422E0,2.1770051E-1,-4.7572337E-2,-1.7903274E-2,2.6016484E-3,8.2238935E-2,1.0488969E-2,1.6567633E-1],"categories":[],"categories_nodes":[],"categories_segments":[],"categories_sizes":[],"default_left":[0,0,0,0,0,0,0,0,0,0,0,0,0],"id":4,"left_children":[1,3,5,7,9,11,-1,-1,-1,-1,-1,-1,-1],"loss_changes":[1.0171061E3,4.2557022E1,9.088867E0,8.608627E0,6.1394634E0,1.0265918E1,0E0,0E0,0E0,0E0,0E0,0E0,0E0],"parents":[2147483647,0,0,1,1,2,2,3,3,4,4,5,5],"right_children":[2,4,6,8,10,12,-1,-1,-1,-1,-1,-1,-1],"split_conditions":[3.598594E-1,1.4697139E-1,5.2479464E-1,2.8337233E-2,6.1E1,6.7E1,2.1770051E-1,-4.7572337E-2,-1.7903274E-2,2.6016484E-3,8.2238935E-2,1.0488969E-2,1.6567633E-1],"split_indices":[0,0,0,0,1,1,0,0,0,0,0,0,0],"split_type":[0,0,0,0,0,0,0,0,0,0,0,0,0],"sum_hessian":[3.1033316E2,2.6342047E2,4.69127E1,2.5325618E2,1.0164273E1,3.5593784E0,4.3353325E1,2.2400894E2,2.9247248E1,3.6745222E0,6.4897504E0,2.2515159E0,1.3078626E0],"tree_param":{"num_deleted":"0","num_feature":"5","num_nodes":"13","size_leaf_vector":"1"}},{"base_weights":[-3.7019994E-2,-7.9910743E-1,3.5802643E0,-8.7445515E-1,7.775534E-1,1.6592267E0,1.8397157E-1,-4.6552517E-2,-1.7417783E-2,6.374376E-2,-1.06021715E-2,-1.6033081E-3,1.5442125E-1],"categories":[],"categories_nodes":[],"categories_segments":[],"categories_sizes":[],"default_left":[0,0,0,0,0,0,0,0,0,0,0,0,0],"id":5,"left_children":[1,3,5,7,9,11,-1,-1,-1,-1,-1,-1,-1],"loss_changes":[8.538756E2,3.1069138E1,4.1637573E0,6.9588165E0,6.2728515E0,1.089737E1,0E0,0E0,0E0,0E0,0E0,0E0,0E0],"parents":[2147483647,0,0,1,1,2,2,3,3,4,4,5,5],"right_children":[2,4,6,8,10,12,-1,-1,-1,-1,-1,-1,-1],"split_conditions":[3.598594E-1,1.4697139E-1,5.2479464E-1,3.3532895E-2,2E0,6.7E1,1.8397157E-1,-4.6552517E-2,-1.7417783E-2,6.374376E-2,-1.06021715E-2,-1.6033081E-3,1.5442125E-1],"split_indices":[0,0,0,0,4,1,0,0,0,0,0,0,0],"split_type":[0,0,0,0,0,0,0,0,0,0,0,0,0],"sum_hessian":[3.0770923E2,2.5480594E2,5.2903286E1,2.4360936E2,1.1196578E1,3.4673033E0,4.943598E1,2.1925345E2,2.4355913E1,7.259859E0,3.936719E0,2.035768E0,1.4315354E0],"tree_param":{"num_deleted":"0","num_feature":"5","num_nodes":"13","size_leaf_vector":"1"}},{"base_weights":[-5.4144617E-2,-8.341897E-1,2.8133028E0,-9.3773234E-1,-2.629844E-1,2.194608E0,3.3021555E0,-4.9803313E-2,-3.8448986E-2,-3.6268763E-2,-2.918043E-4,6.63391E-2,1.3510151E-1,1.7342693E-1,5.994119E-2],"categories":[],"categories_nodes":[],"categories_segments":[],"categories_sizes":[],"default_left":[0,0,0,0,1,0,0,0,0,0,0,0,0,0,0],"id":6,"left_children":[1,3,5,7,9,11,13,-1,-1,-1,-1,-1,-1,-1,-1],"loss_changes":[6.84502E2,1.39791565E1,1.2548645E1,1.2346039E0,4.549699E0,1.0449219E1,7.943512E0,0E0,0E0,0E0,0E0,0E0,0E0,0E0,0E0],"parents":[2147483647,0,0,1,1,2,2,3,3,4,4,5,5,6,6],"right_children":[2,4,6,8,10,12,14,-1,-1,-1,-1,-1,-1,-1,-1],"split_conditions":[2.3672116E-1,2.5871161E-2,8.0877405E-1,5.450422E-3,5.8E1,6.1E1,7.6E1,-4.9803313E-2,-3.8448986E-2,-3.6268763E-2,-2.918043E-4,6.63391E-2,1.3510151E-1,1.7342693E-1,5.994119E-2],"split_indices":[0,0,0,0,1,1,1,0,0,0,0,0,0,0,0],"split_type":[0,0,0,0,0,0,0,0,0,0,0,0,0,0,0],"sum_hessian":[3.039777E2,2.395271E2,6.445059E1,2.0222755E2,3.729955E1,3.0870295E1,3.35803E1,1.4663629E2,5.559126E1,1.2679351E1,2.4620197E1,1.2723865E1,1.814643E1,3.0517181E1,3.063116E0],"tree_param":{"num_deleted":"0","num_feature":"5","num_nodes":"15","size_leaf_vector":"1"}},{"base_weights":[-5.5400673E-2,-2.5294876E-1,4.7879842E-1,-5.081833E-1,-1.4018749E-1,3.471527E-1,5.207503E-2,-1.1928884E-2,-3.3022888E-2,-1.3619452E-2,4.229625E-3,9.483852E-3,2.7872834E-2],"categories":[],"categories_nodes":[],"categories_segments":[],"categories_sizes":[],"default_left":[1,1,0,0,0,0,0,0,0,0,0,0,0],"id":7,"left_children":[1,3,5,7,9,11,-1,-1,-1,-1,-1,-1,-1],"loss_changes":[3.1664034E1,6.227704E0,5.641596E0,2.5800133E0,4.5749354E0,2.118925E0,0E0,0E0,0E0,0E0,0E0,0E0,0E0],"parents":[2147483647,0,0,1,1,2,2,3,3,4,4,5,5],"right_children":[2,4,6,8,10,12,-1,-1,-1,-1,-1,-1,-1],"split_conditions":[6.7E1,5.2E1,2E0,1E0,1E0,7.2E1,5.207503E-2,-1.1928884E-2,-3.3022888E-2,-1.3619452E-2,4.229625E-3,9.483852E-3,2.7872834E-2],"split_indices":[1,1,2,2,2,1,0,0,0,0,0,0,0],"split_type":[0,0,0,0,0,0,0,0,0,0,0,0,0],"sum_hessian":[2.9790002E2,2.17861E2,8.0039024E1,6.568244E1,1.5217856E2,6.61743E1,1.386472E1,2.4634039E1,4.104841E1,9.568867E1,5.648989E1,3.8927383E1,2.7246922E1],"tree_param":{"num_deleted":"0","num_feature":"5","num_nodes":"13","size_leaf_vector":"1"}},{"base_weights":[-3.8916588E-2,-8.54287E-1,2.459089E0,-9.1827124E-1,-2.8005344E-1,1.0969689E0,2.7308612E0,-5.0061654E-2,-3.6332533E-2,-3.881922E-2,-8.386421E-3,1.296234E-2,7.7958524E-2,1.5575354E-1,1.1308543E-1],"categories":[],"categories_nodes":[],"categories_segments":[],"categories_sizes":[],"default_left":[0,0,0,0,1,0,0,0,0,0,0,0,0,0,0],"id":8,"left_children":[1,3,5,7,9,11,13,-1,-1,-1,-1,-1,-1,-1,-1],"loss_changes":[6.172415E2,8.135956E0,2.4612274E1,2.5328827E0,1.2267662E0,5.0461025E0,4.0405884E0,0E0,0E0,0E0,0E0,0E0,0E0,0E0,0E0],"parents":[2147483647,0,0,1,1,2,2,3,3,4,4,5,5,6,6],"right_children":[2,4,6,8,10,12,14,-1,-1,-1,-1,-1,-1,-1,-1],"split_conditions":[1.7675585E-1,4.0754285E-2,5.2479464E-1,5.450422E-3,5.1E1,1E0,0E0,-5.0061654E-2,-3.6332533E-2,-3.881922E-2,-8.386421E-3,1.296234E-2,7.7958524E-2,1.5575354E-1,1.1308543E-1],"split_indices":[0,0,0,0,1,2,2,0,0,0,0,0,0,0,0],"split_type":[0,0,0,0,0,0,0,0,0,0,0,0,0,0,0],"sum_hessian":[3.010133E2,2.274347E2,7.357861E1,2.0409427E2,2.3340422E1,1.3076349E1,6.0502266E1,1.394811E2,6.4613174E1,3.2163553E0,2.0124065E1,5.204427E0,7.871923E0,3.0161715E1,3.0340553E1],"tree_param":{"num_deleted":"0","num_feature":"5","num_nodes":"15","size_leaf_vector":"1"}},{"base_weights":[-4.6206065E-2,-8.3249694E-1,2.2437956E0,-9.137053E-1,-3.2688218E-1,1.1999564E0,1.2972195E-1,-4.886358E-2,-3.7157577E-2,-2.4836091E-2,5.2467408E-3,2.5002096E-2,7.730081E-2],"categories":[],"categories_nodes":[],"categories_segments":[],"categories_sizes":[],"default_left":[0,0,0,0,0,0,0,0,0,0,0,0,0],"id":9,"left_children":[1,3,5,7,9,11,-1,-1,-1,-1,-1,-1,-1],"loss_changes":[5.28496E2,8.670776E0,2.434732E1,1.3082428E0,2.3833778E0,4.2469616E0,0E0,0E0,0E0,0E0,0E0,0E0,0E0],"parents":[2147483647,0,0,1,1,2,2,3,3,4,4,5,5],"right_children":[2,4,6,8,10,12,-1,-1,-1,-1,-1,-1,-1],"split_conditions":[1.7675585E-1,2.8337233E-2,6.2019944E-1,5.450422E-3,2E0,1E0,1.2972195E-1,-4.886358E-2,-3.7157577E-2,-2.4836091E-2,5.2467408E-3,2.5002096E-2,7.730081E-2],"split_indices":[0,0,0,0,2,2,0,0,0,0,0,0,0],"split_type":[0,0,0,0,0,0,0,0,0,0,0,0,0],"sum_hessian":[2.9147244E2,2.1744678E2,7.402567E1,1.8665968E2,3.0787098E1,1.9725748E1,5.4299923E1,1.3253366E2,5.4126015E1,2.1988434E1,8.798664E0,7.335162E0,1.2390585E1],"tree_param":{"num_deleted":"0","num_feature":"5","num_nodes":"13","size_leaf_vector":"1"}},{"base_weights":[-5.2452326E-2,-1.7110823E-1,7.347351E-1,-3.4200814E-1,5.9105515E-2,3.2894656E-1,9.939016E-1,-2.6380157E-2,-1.2894127E-2,-1.3813258E-3,2.5176475E-2,3.525166E-2,-1.2353668E-2,9.211614E-2,3.9912563E-2],"categories":[],"categories_nodes":[],"categories_segments":[],"categories_sizes":[],"default_left":[1,1,0,1,0,0,0,0,0,0,0,0,0,0,0],"id":10,"left_children":[1,3,5,7,9,11,13,-1,-1,-1,-1,-1,-1,-1,-1],"loss_changes":[2.6991364E1,9.886077E0,3.655199E0,2.113329E0,4.165032E0,3.6950483E0,2.2828903E0,0E0,0E0,0E0,0E0,0E0,0E0,0E0,0E0],"parents":[2147483647,0,0,1,1,2,2,3,3,4,4,5,5,6,6],"right_children":[2,4,6,8,10,12,14,-1,-1,-1,-1,-1,-1,-1,-1],"split_conditions":[7.2E1,6.1E1,1E0,5E1,2E0,7.5E1,7.3E1,-2.6380157E-2,-1.2894127E-2,-1.3813258E-3,2.5176475E-2,3.525166E-2,-1.2353668E-2,9.211614E-2,3.9912563E-2],"split_indices":[1,1,2,1,2,1,1,0,0,0,0,0,0,0,0],"split_type":[0,0,0,0,0,0,0,0,0,0,0,0,0,0,0],"sum_hessian":[2.8662708E2,2.4976208E2,3.6865005E1,1.4306885E2,1.0669323E2,1.5252594E1,2.1612411E1,4.2978836E1,1.0009001E2,9.0056076E1,1.6637152E1,9.092244E0,6.16035E0,2.4728236E0,1.9139587E1],"tree_param":{"num_deleted":"0","num_feature":"5","num_nodes":"15","size_leaf_vector":"1"}},{"base_weights":[-6.0452282E-2,-2.915696E-1,3.4172535E-1,-3.9865398E-1,-1.1612941E-1,2.7520958E-1,8.7991726E-1,-3.098612E-2,-1.8196637E-2,-1.2929364E-2,6.8482407E-3,1.4763671E-2,-2.1919783E-2,5.7578564E-2,-3.4002852E-4],"categories":[],"categories_nodes":[],"categories_segments":[],"categories_sizes":[],"default_left":[1,1,0,1,0,0,0,0,0,0,0,0,0,0,0],"id":11,"left_children":[1,3,5,7,9,11,13,-1,-1,-1,-1,-1,-1,-1,-1],"loss_changes":[2.7106323E1,3.4303179E0,3.5701694E0,6.533642E-1,2.6152391E0,1.5073228E0,2.7198963E0,0E0,0E0,0E0,0E0,0E0,0E0,0E0,0E0],"parents":[2147483647,0,0,1,1,2,2,3,3,4,4,5,5,6,6],"right_children":[2,4,6,8,10,12,14,-1,-1,-1,-1,-1,-1,-1,-1],"split_conditions":[6.5E1,5.8E1,7.9E1,4.3E1,1E0,7.8E1,8.4E1,-3.098612E-2,-1.8196637E-2,-1.2929364E-2,6.8482407E-3,1.4763671E-2,-2.1919783E-2,5.7578564E-2,-3.4002852E-4],"split_indices":[1,1,1,1,2,1,1,0,0,0,0,0,0,0,0],"split_type":[0,0,0,0,0,0,0,0,0,0,0,0,0,0,0],"sum_hessian":[2.8955002E2,1.8405508E2,1.0549494E2,1.135032E2,7.055188E1,9.523598E1,1.02589655E1,1.3120043E1,1.00383156E2,4.5128773E1,2.5423105E1,9.320172E1,2.0342538E0,7.624455E0,2.6345108E0],"tree_param":{"num_deleted":"0","num_feature":"5","num_nodes":"15","size_leaf_vector":"1"}},{"base_weights":[-2.0271339E-2,-7.7405E-1,2.1946356E0,-9.0663546E-1,-3.087238E-2,1.8776937E0,1.3207102E-1,-4.9094766E-2,-3.6912248E-2,-1.247381E-2,2.368249E-2,6.255548E-3,9.6399926E-2],"categories":[],"categories_nodes":[],"categories_segments":[],"categories_sizes":[],"default_left":[0,0,0,0,0,0,0,0,0,0,0,0,0],"id":12,"left_children":[1,3,5,7,9,11,-1,-1,-1,-1,-1,-1,-1],"loss_changes":[4.898347E2,2.1539047E1,5.5894775E0,1.6285706E0,3.887023E0,3.906021E0,0E0,0E0,0E0,0E0,0E0,0E0,0E0],"parents":[2147483647,0,0,1,1,2,2,3,3,4,4,5,5],"right_children":[2,4,6,8,10,12,-1,-1,-1,-1,-1,-1,-1],"split_conditions":[4.2536747E-1,4.0754285E-2,8.60217E-1,5.450422E-3,2E0,4.3E1,1.3207102E-1,-4.9094766E-2,-3.6912248E-2,-1.247381E-2,2.368249E-2,6.255548E-3,9.6399926E-2],"split_indices":[0,0,0,0,2,1,0,0,0,0,0,0,0],"split_type":[0,0,0,0,0,0,0,0,0,0,0,0,0],"sum_hessian":[2.913758E2,2.1787796E2,7.349785E1,1.8470584E2,3.317211E1,4.6040283E1,2.7457563E1,1.24314255E2,6.0391586E1,2.3496752E1,9.675361E0,1.3819308E0,4.465835E1],"tree_param":{"num_deleted":"0","num_feature":"5","num_nodes":"13","size_leaf_vector":"1"}},{"base_weights":[5.185573E-3,-7.655136E-1,1.8846563E0,-8.7405103E-1,-7.1677216E-3,7.5639826E-1,2.0014164E0,-4.8996896E-2,-3.2267015E-2,-1.593861E-2,8.518259E-3,-1.3080172E-2,6.25067E-2,1.1402104E-1,8.3214924E-2],"categories":[],"categories_nodes":[],"categories_segments":[],"categories_sizes":[],"default_left":[0,0,0,0,0,0,0,0,0,0,0,0,0,0,0],"id":13,"left_children":[1,3,5,7,9,11,13,-1,-1,-1,-1,-1,-1,-1,-1],"loss_changes":[4.1798132E2,1.6838135E1,9.540802E0,3.702942E0,1.5275418E0,5.0905623E0,3.300232E0,0E0,0E0,0E0,0E0,0E0,0E0,0E0,0E0],"parents":[2147483647,0,0,1,1,2,2,3,3,4,4,5,5,6,6],"right_children":[2,4,6,8,10,12,14,-1,-1,-1,-1,-1,-1,-1,-1],"split_conditions":[2.3672116E-1,4.0754285E-2,4.2536747E-1,5.450422E-3,0E0,1E0,0E0,-4.8996896E-2,-3.2267015E-2,-1.593861E-2,8.518259E-3,-1.3080172E-2,6.25067E-2,1.1402104E-1,8.3214924E-2],"split_indices":[0,0,0,0,2,2,2,0,0,0,0,0,0,0,0],"split_type":[0,0,0,0,0,0,0,0,0,0,0,0,0,0,0],"sum_hessian":[2.8656415E2,2.0364842E2,8.291574E1,1.780173E2,2.5631107E1,8.477309E0,7.443843E1,1.19436745E2,5.8580563E1,9.014084E0,1.6617023E1,2.9222555E0,5.5550537E0,3.75757E1,3.6862736E1],"tree_param":{"num_deleted":"0","num_feature":"5","num_nodes":"15","size_leaf_vector":"1"}},{"base_weights":[-2.8754435E-2,-8.287155E-1,1.6307752E0,-9.054293E-1,-2.3390484E-1,1.1828952E0,2.128178E0,-4.9363002E-2,-3.4598075E-2,-5.4582655E-3,-3.8654234E-2,4.2004682E-2,8.298081E-2,1.0814811E-1,3.364879E-2],"categories":[],"categories_nodes":[],"categories_segments":[],"categories_sizes":[],"default_left":[0,0,0,0,0,0,0,0,0,0,0,0,0,0,0],"id":14,"left_children":[1,3,5,7,9,11,13,-1,-1,-1,-1,-1,-1,-1,-1],"loss_changes":[3.7232928E2,8.42218E0,1.7805908E1,2.238449E0,1.4601E0,6.8184204E0,6.689606E-1,0E0,0E0,0E0,0E0,0E0,0E0,0E0,0E0],"parents":[2147483647,0,0,1,1,2,2,3,3,4,4,5,5,6,6],"right_children":[2,4,6,8,10,12,14,-1,-1,-1,-1,-1,-1,-1,-1],"split_conditions":[1.4697139E-1,3.5263244E-2,8.0877405E-1,6.055036E-3,1.1015767E-1,6.7E1,8.2E1,-4.9363002E-2,-3.4598075E-2,-5.4582655E-3,-3.8654234E-2,4.2004682E-2,8.298081E-2,1.0814811E-1,3.364879E-2],"split_indices":[0,0,0,0,0,1,1,0,0,0,0,0,0,0,0],"split_type":[0,0,0,0,0,0,0,0,0,0,0,0,0,0,0],"sum_hessian":[2.7844354E2,1.8821625E2,9.022729E1,1.662522E2,2.1964052E1,4.9254673E1,4.0972614E1,1.1756136E2,4.8690834E1,1.881391E1,3.1501422E0,3.0258535E1,1.899614E1,3.9541084E1,1.4315279E0],"tree_param":{"num_deleted":"0","num_feature":"5","num_nodes":"15","size_leaf_vector":"1"}},{"base_weights":[-3.4017526E-2,-2.828206E-1,1.9182307E-1,-4.8919585E-1,-1.970612E-1,6.917022E-2,5.3453785E-1,-9.6405233E-4,-2.5620759E-2,-1.0494868E-2,1.4287387E-2,2.2506623E-2,1.1644636E-3,1.1559301E-2,3.723165E-2],"categories":[],"categories_nodes":[],"categories_segments":[],"categories_sizes":[],"default_left":[1,1,0,0,0,0,0,0,0,0,0,0,0,0,0],"id":15,"left_children":[1,3,5,7,9,11,13,-1,-1,-1,-1,-1,-1,-1,-1],"loss_changes":[1.5536854E1,2.2311354E0,6.059415E0,4.039955E-1,6.46116E-1,1.8764602E0,2.2545414E0,0E0,0E0,0E0,0E0,0E0,0E0,0E0,0E0],"parents":[2147483647,0,0,1,1,2,2,3,3,4,4,5,5,6,6],"right_children":[2,4,6,8,10,12,14,-1,-1,-1,-1,-1,-1,-1,-1],"split_conditions":[6.1E1,5E1,7.2E1,4E1,3E0,6.2E1,1E0,-9.6405233E-4,-2.5620759E-2,-1.0494868E-2,1.4287387E-2,2.2506623E-2,1.1644636E-3,1.1559301E-2,3.723165E-2],"split_indices":[1,1,1,1,2,1,2,0,0,0,0,0,0,0,0],"split_type":[0,0,0,0,0,0,0,0,0,0,0,0,0,0,0],"sum_hessian":[2.74541E2,1.3050952E2,1.4403148E2,3.693155E1,9.357797E1,1.06955444E2,3.707603E1,1.825115E0,3.5106434E1,9.1705124E1,1.8728521E0,1.0549463E1,9.6405975E1,1.6030432E1,2.10456E1],"tree_param":{"num_deleted":"0","num_feature":"5","num_nodes":"15","size_leaf_vector":"1"}},{"base_weights":[-2.1551006E-2,-7.867121E-1,1.4356478E0,-4.8817478E-2,-4.6835893E-1,4.0706062E-1,1.687037E0,2.485857E-2,-2.545395E-2,-1.2641065E-2,5.8496144E-2,6.1365556E-2,9.773334E-2],"categories":[],"categories_nodes":[],"categories_segments":[],"categories_sizes":[],"default_left":[0,0,0,0,0,0,0,0,0,0,0,0,0],"id":16,"left_children":[1,3,5,-1,7,9,11,-1,-1,-1,-1,-1,-1],"loss_changes":[3.0791092E2,1.0473404E1,2.3900146E1,0E0,2.986061E0,1.0360243E1,6.9631805E0,0E0,0E0,0E0,0E0,0E0,0E0],"parents":[2147483647,0,0,1,1,2,2,4,4,5,5,6,6],"right_children":[2,4,6,-1,8,10,12,-1,-1,-1,-1,-1,-1],"split_conditions":[1.4697139E-1,6.055036E-3,5.2479464E-1,-4.8817478E-2,6.459951E-3,6.7E1,8.0877405E-1,2.485857E-2,-2.545395E-2,-1.2641065E-2,5.8496144E-2,6.1365556E-2,9.773334E-2],"split_indices":[0,0,0,0,0,1,0,0,0,0,0,0,0],"split_type":[0,0,0,0,0,0,0,0,0,0,0,0,0],"sum_hessian":[2.741423E2,1.8005649E2,9.408581E1,1.1154451E2,6.851198E1,1.899301E1,7.5092804E1,2.318864E0,6.6193115E1,1.0542366E1,8.450643E0,2.9685625E1,4.5407177E1],"tree_param":{"num_deleted":"0","num_feature":"5","num_nodes":"13","size_leaf_vector":"1"}},{"base_weights":[-5.2649334E-2,-8.1785524E-1,1.3495773E0,-9.005794E-1,-2.2971816E-1,9.670346E-1,1.7761376E0,-4.822072E-2,-3.6838874E-2,-1.8164663E-2,1.30063165E-2,3.07117E-2,6.095626E-2,9.210761E-2,1.80413E-2],"categories":[],"categories_nodes":[],"categories_segments":[],"categories_sizes":[],"default_left":[0,0,0,0,1,0,0,0,0,0,0,0,0,0,0],"id":17,"left_children":[1,3,5,7,9,11,13,-1,-1,-1,-1,-1,-1,-1,-1],"loss_changes":[2.8949173E2,8.283295E0,1.3827637E1,8.855362E-1,1.590294E0,3.9132347E0,3.4319E0,0E0,0E0,0E0,0E0,0E0,0E0,0E0,0E0],"parents":[2147483647,0,0,1,1,2,2,3,3,4,4,5,5,6,6],"right_children":[2,4,6,8,10,12,14,-1,-1,-1,-1,-1,-1,-1,-1],"split_conditions":[1.4697139E-1,3.3532895E-2,8.0877405E-1,6.055036E-3,7.1E1,6.4E1,7.8E1,-4.822072E-2,-3.6838874E-2,-1.8164663E-2,1.30063165E-2,3.07117E-2,6.095626E-2,9.210761E-2,1.80413E-2],"split_indices":[0,0,0,0,1,1,1,0,0,0,0,0,0,0,0],"split_type":[0,0,0,0,0,0,0,0,0,0,0,0,0,0,0],"sum_hessian":[2.6776987E2,1.735041E2,9.426578E1,1.5164351E2,2.1860596E1,5.141945E1,4.284633E1,1.05601875E2,4.604163E1,1.7379698E1,4.480898E0,2.2861443E1,2.8558006E1,4.0648758E1,2.19757E0],"tree_param":{"num_deleted":"0","num_feature":"5","num_nodes":"15","size_leaf_vector":"1"}},{"base_weights":[-3.1535182E-2,-7.086781E-1,1.4653776E0,-8.5260606E-1,1.5790312E-1,8.8138245E-2,1.1438011E0,-4.80154E-2,-3.2836687E-2,-5.4431553E-3,4.5030538E-2,1.0240816E-2,6.14553E-2],"categories":[],"categories_nodes":[],"categories_segments":[],"categories_sizes":[],"default_left":[0,0,0,0,0,0,0,0,0,0,0,0,0],"id":18,"left_children":[1,3,5,7,9,-1,11,-1,-1,-1,-1,-1,-1],"loss_changes":[2.692787E2,2.2944923E1,5.8974E0,2.6812134E0,5.4261675E0,0E0,3.1610184E0,0E0,0E0,0E0,0E0,0E0,0E0],"parents":[2147483647,0,0,1,1,2,2,3,3,4,4,6,6],"right_children":[2,4,6,8,10,-1,12,-1,-1,-1,-1,-1,-1],"split_conditions":[3.598594E-1,6.1435685E-2,0E0,5.450422E-3,7.2E1,8.8138245E-2,5.2479464E-1,-4.80154E-2,-3.2836687E-2,-5.4431553E-3,4.5030538E-2,1.0240816E-2,6.14553E-2],"split_indices":[0,0,2,0,1,0,0,0,0,0,0,0,0],"split_type":[0,0,0,0,0,0,0,0,0,0,0,0,0],"sum_hessian":[2.6363486E2,1.8188431E2,8.175054E1,1.5599214E2,2.5892155E1,4.01443E1,4.1606247E1,9.813121E1,5.786093E1,1.9677721E1,6.214433E0,3.7482936E0,3.7857952E1],"tree_param":{"num_deleted":"0","num_feature":"5","num_nodes":"13","size_leaf_vector":"1"}},{"base_weights":[1.4918284E-2,-7.954794E-1,1.3138664E0,-8.824944E-1,-2.2220214E-1,6.161046E-1,1.4917008E0,-4.892134E-2,-3.3519525E-2,-2.2645121E-2,1.4365469E-2,4.37916E-3,4.4958908E-2,6.839671E-2,9.5895745E-2],"categories":[],"categories_nodes":[],"categories_segments":[],"categories_sizes":[],"default_left":[0,0,0,0,0,0,0,0,0,0,0,0,0,0,0],"id":19,"left_children":[1,3,5,7,9,11,13,-1,-1,-1,-1,-1,-1,-1,-1],"loss_changes":[2.7651276E2,7.8736267E0,1.1603149E1,2.1950912E0,2.7931018E0,3.2425432E0,1.5815125E0,0E0,0E0,0E0,0E0,0E0,0E0,0E0,0E0],"parents":[2147483647,0,0,1,1,2,2,3,3,4,4,5,5,6,6],"right_children":[2,4,6,8,10,12,14,-1,-1,-1,-1,-1,-1,-1,-1],"split_conditions":[1.4697139E-1,3.3532895E-2,5.2479464E-1,5.450422E-3,2E0,1E0,9.0036315E-1,-4.892134E-2,-3.3519525E-2,-2.2645121E-2,1.4365469E-2,4.37916E-3,4.4958908E-2,6.839671E-2,9.5895745E-2],"split_indices":[0,0,0,0,2,2,0,0,0,0,0,0,0,0,0],"split_type":[0,0,0,0,0,0,0,0,0,0,0,0,0,0,0],"sum_hessian":[2.6068604E2,1.6077074E2,9.991529E1,1.3911566E2,2.165508E1,2.119963E1,7.871566E1,9.330283E1,4.581283E1,1.4982364E1,6.672717E0,7.850852E0,1.334878E1,6.4263824E1,1.445183E1],"tree_param":{"num_deleted":"0","num_feature":"5","num_nodes":"15","size_leaf_vector":"1"}},{"base_weights":[-1.5902532E-2,-7.701869E-1,1.2267345E0,-8.924831E-1,-3.00456E-1,8.739979E-1,1.5872066E0,-4.8346166E-2,-3.3409853E-2,-3.9045412E-2,-1.0050968E-3,3.5269987E-2,6.368109E-2,8.705331E-2,6.0533088E-2],"categories":[],"categories_nodes":[],"categories_segments":[],"categories_sizes":[],"default_left":[0,0,0,0,0,0,0,0,0,0,0,0,0,0,0],"id":20,"left_children":[1,3,5,7,9,11,13,-1,-1,-1,-1,-1,-1,-1,-1],"loss_changes":[2.4259462E2,8.983353E0,1.1044174E1,1.4788055E0,4.668396E0,2.5808601E0,6.225586E-1,0E0,0E0,0E0,0E0,0E0,0E0,0E0,0E0],"parents":[2147483647,0,0,1,1,2,2,3,3,4,4,5,5,6,6],"right_children":[2,4,6,8,10,12,14,-1,-1,-1,-1,-1,-1,-1,-1],"split_conditions":[2.1009493E-1,2.330126E-2,8.0877405E-1,6.055036E-3,0E0,2E0,1E0,-4.8346166E-2,-3.3409853E-2,-3.9045412E-2,-1.0050968E-3,3.5269987E-2,6.368109E-2,8.705331E-2,6.0533088E-2],"split_indices":[0,0,0,0,2,2,2,0,0,0,0,0,0,0,0],"split_type":[0,0,0,0,0,0,0,0,0,0,0,0,0,0,0],"sum_hessian":[2.5681433E2,1.6004608E2,9.6768234E1,1.26270966E2,3.3775112E1,5.0639755E1,4.6128483E1,9.2319244E1,3.3951725E1,1.1788067E1,2.1987045E1,3.7559044E1,1.308071E1,3.017494E1,1.5953541E1],"tree_param":{"num_deleted":"0","num_feature":"5","num_nodes":"15","size_leaf_vector":"1"}},{"base_weights":[-7.9552075E-3,-1.0725894E-1,5.321209E-1,-4.705722E-1,-3.7992515E-2,1.9420695E-1,7.499694E-1,-2.9796494E-2,-1.623774E-2,-4.5467783E-3,9.285909E-3,-1.649913E-2,1.51922405E-2,6.2046368E-2,1.6351564E-2],"categories":[],"categories_nodes":[],"categories_segments":[],"categories_sizes":[],"default_left":[1,1,0,0,0,0,0,0,0,0,0,0,0,0,0],"id":21,"left_children":[1,3,5,7,9,11,13,-1,-1,-1,-1,-1,-1,-1,-1],"loss_changes":[1.3344049E1,5.2693653E0,2.6992197E0,4.1981745E-1,2.1197238E0,1.0484116E0,4.4007177E0,0E0,0E0,0E0,0E0,0E0,0E0,0E0,0E0],"parents":[2147483647,0,0,1,1,2,2,3,3,4,4,5,5,6,6],"right_children":[2,4,6,8,10,12,14,-1,-1,-1,-1,-1,-1,-1,-1],"split_conditions":[7.2E1,5E1,1E0,2E0,2E0,2E0,7.6E1,-2.9796494E-2,-1.623774E-2,-4.5467783E-3,9.285909E-3,-1.649913E-2,1.51922405E-2,6.2046368E-2,1.6351564E-2],"split_indices":[1,1,2,2,2,4,1,0,0,0,0,0,0,0,0],"split_type":[0,0,0,0,0,0,0,0,0,0,0,0,0,0,0],"sum_hessian":[2.4674539E2,2.0909966E2,3.764573E1,3.2554188E1,1.7654547E2,1.54978485E1,2.214788E1,1.5845314E1,1.6708872E1,1.4324E2,3.330546E1,2.3331373E0,1.3164711E1,9.354669E0,1.2793212E1],"tree_param":{"num_deleted":"0","num_feature":"5","num_nodes":"15","size_leaf_vector":"1"}},{"base_weights":[-6.364168E-2,-7.8976566E-1,9.937512E-1,-4.8102174E-2,-5.5433434E-1,4.0568027E-1,1.2537421E0,-2.2287625E-3,-2.989142E-2,9.203072E-3,3.841611E-2,7.661421E-2,4.732159E-2],"categories":[],"categories_nodes":[],"categories_segments":[],"categories_sizes":[],"default_left":[0,0,0,0,0,0,0,0,0,0,0,0,0],"id":22,"left_children":[1,3,5,-1,7,9,11,-1,-1,-1,-1,-1,-1],"loss_changes":[1.9314725E2,5.5138626E0,1.5154411E1,0E0,1.4224625E0,2.5014744E0,4.5895996E0,0E0,0E0,0E0,0E0,0E0,0E0],"parents":[2147483647,0,0,1,1,2,2,4,4,5,5,6,6],"right_children":[2,4,6,-1,8,10,12,-1,-1,-1,-1,-1,-1],"split_conditions":[1.4697139E-1,5.450422E-3,6.2019944E-1,-4.8102174E-2,6.459951E-3,2E0,0E0,-2.2287625E-3,-2.989142E-2,9.203072E-3,3.841611E-2,7.661421E-2,4.732159E-2],"split_indices":[0,0,0,0,0,2,2,0,0,0,0,0,0],"split_type":[0,0,0,0,0,0,0,0,0,0,0,0,0],"sum_hessian":[2.4953766E2,1.4809334E2,1.0144431E2,8.373419E1,6.435915E1,3.1884777E1,6.955953E1,5.218783E0,5.9140366E1,2.0726122E1,1.1158654E1,3.43967E1,3.5162834E1],"tree_param":{"num_deleted":"0","num_feature":"5","num_nodes":"13","size_leaf_vector":"1"}},{"base_weights":[-2.454402E-2,-7.961107E-1,8.916235E-1,-4.8002336E-2,-5.341857E-1,5.482122E-1,1.3872112E0,-2.9870931E-2,-1.5773106E-3,-1.8108254E-3,3.501908E-2,7.2670184E-2,-9.255863E-3],"categories":[],"categories_nodes":[],"categories_segments":[],"categories_sizes":[],"default_left":[0,0,0,0,1,1,0,0,0,0,0,0,0],"id":23,"left_children":[1,3,5,-1,7,9,11,-1,-1,-1,-1,-1,-1],"loss_changes":[1.7638246E2,5.302498E0,1.865551E1,0E0,1.7098331E0,6.1653824E0,5.0609665E0,0E0,0E0,0E0,0E0,0E0,0E0],"parents":[2147483647,0,0,1,1,2,2,4,4,5,5,6,6],"right_children":[2,4,6,-1,8,10,12,-1,-1,-1,-1,-1,-1],"split_conditions":[6.628732E-2,5.450422E-3,8.0877405E-1,-4.8002336E-2,7.4E1,5.5E1,8E1,-2.9870931E-2,-1.5773106E-3,-1.8108254E-3,3.501908E-2,7.2670184E-2,-9.255863E-3],"split_indices":[0,0,0,0,1,1,1,0,0,0,0,0,0],"split_type":[0,0,0,0,0,0,0,0,0,0,0,0,0],"sum_hessian":[2.475168E2,1.3443285E2,1.13083954E2,8.1043335E1,5.3389515E1,6.804157E1,4.5042377E1,4.7256065E1,6.13345E0,1.4213724E1,5.382785E1,4.3295353E1,1.7470276E0],"tree_param":{"num_deleted":"0","num_feature":"5","num_nodes":"13","size_leaf_vector":"1"}},{"base_weights":[-2.5222175E-2,-7.7242374E-1,9.829297E-1,-8.9092493E-1,-8.1713796E-2,5.023009E-1,1.2077547E0,-4.849462E-2,-3.602543E-2,5.681601E-3,-4.0034868E-2,1.7313767E-2,3.700384E-2,7.593375E-2,4.010868E-2],"categories":[],"categories_nodes":[],"categories_segments":[],"categories_sizes":[],"default_left":[0,0,0,0,0,0,0,0,0,0,0,0,0,0,0],"id":24,"left_children":[1,3,5,7,9,11,13,-1,-1,-1,-1,-1,-1,-1,-1],"loss_changes":[1.8187659E2,1.1275574E1,1.0500092E1,8.9243317E-1,3.0972867E0,1.0225134E0,7.522789E0,0E0,0E0,0E0,0E0,0E0,0E0,0E0,0E0],"parents":[2147483647,0,0,1,1,2,2,3,3,4,4,5,5,6,6],"right_children":[2,4,6,8,10,12,14,-1,-1,-1,-1,-1,-1,-1,-1],"split_conditions":[1.4697139E-1,3.3532895E-2,6.2019944E-1,5.450422E-3,1.0052644E-1,2E0,1E0,-4.849462E-2,-3.602543E-2,5.681601E-3,-4.0034868E-2,1.7313767E-2,3.700384E-2,7.593375E-2,4.010868E-2],"split_indices":[0,0,0,0,0,2,2,0,0,0,0,0,0,0,0],"split_type":[0,0,0,0,0,0,0,0,0,0,0,0,0,0,0],"sum_hessian":[2.3943422E2,1.3764851E2,1.01785706E2,1.1724379E2,2.0404718E1,3.346938E1,6.831633E1,7.691271E1,4.0331078E1,1.6707336E1,3.6973817E0,2.1691797E1,1.1777581E1,3.711748E1,3.1198849E1],"tree_param":{"num_deleted":"0","num_feature":"5","num_nodes":"15","size_leaf_vector":"1"}},{"base_weights":[-1.3738895E-2,-7.4691343E-1,9.1447896E-1,-4.768489E-2,-4.8182228E-1,5.960371E-1,1.3085848E0,-2.9886324E-2,-8.6426595E-3,1.4819142E-2,3.6407277E-2,7.3906265E-2,4.8465885E-2],"categories":[],"categories_nodes":[],"categories_segments":[],"categories_sizes":[],"default_left":[0,0,0,0,0,0,0,0,0,0,0,0,0],"id":25,"left_children":[1,3,5,-1,7,9,11,-1,-1,-1,-1,-1,-1],"loss_changes":[1.6198172E2,6.82946E0,1.2403038E1,0E0,2.0557432E0,2.1568584E0,1.2193527E0,0E0,0E0,0E0,0E0,0E0,0E0],"parents":[2147483647,0,0,1,1,2,2,4,4,5,5,6,6],"right_children":[2,4,6,-1,8,10,12,-1,-1,-1,-1,-1,-1],"split_conditions":[1.4697139E-1,5.450422E-3,8.0877405E-1,-4.768489E-2,2E0,4.2536747E-1,1E0,-2.9886324E-2,-8.6426595E-3,1.4819142E-2,3.6407277E-2,7.3906265E-2,4.8465885E-2],"split_indices":[0,0,0,0,2,0,2,0,0,0,0,0,0],"split_type":[0,0,0,0,0,0,0,0,0,0,0,0,0],"sum_hessian":[2.3601376E2,1.3196973E2,1.0404404E2,7.2678925E1,5.92908E1,5.8935707E1,4.5108334E1,4.2436813E1,1.6853987E1,1.9025259E1,3.9910446E1,2.7839434E1,1.72689E1],"tree_param":{"num_deleted":"0","num_feature":"5","num_nodes":"13","size_leaf_vector":"1"}},{"base_weights":[-1.7893589E-3,-6.707764E-1,9.4850636E-1,-8.29496E-1,-8.64518E-2,6.624404E-1,1.2803677E0,-4.7538217E-2,-2.8742997E-2,-3.4784473E-2,3.6455118E-3,2.3694046E-2,5.4606475E-2,7.763635E-2,4.5756493E-2],"categories":[],"categories_nodes":[],"categories_segments":[],"categories_sizes":[],"default_left":[0,0,0,0,1,0,0,0,0,0,0,0,0,0,0],"id":26,"left_children":[1,3,5,7,9,11,13,-1,-1,-1,-1,-1,-1,-1,-1],"loss_changes":[1.4636661E2,1.2459171E1,8.181824E0,2.7308197E0,2.9612105E0,3.7892532E0,2.8527832E0,0E0,0E0,0E0,0E0,0E0,0E0,0E0,0E0],"parents":[2147483647,0,0,1,1,2,2,3,3,4,4,5,5,6,6],"right_children":[2,4,6,8,10,12,14,-1,-1,-1,-1,-1,-1,-1,-1],"split_conditions":[2.1009493E-1,2.8337233E-2,8.0877405E-1,5.450422E-3,5.4E1,2E0,6.5E1,-4.7538217E-2,-2.8742997E-2,-3.4784473E-2,3.6455118E-3,2.3694046E-2,5.4606475E-2,7.763635E-2,4.5756493E-2],"split_indices":[0,0,0,0,1,2,1,0,0,0,0,0,0,0,0],"split_type":[0,0,0,0,0,0,0,0,0,0,0,0,0,0,0],"sum_hessian":[2.2823112E2,1.3411282E2,9.411831E1,1.051354E2,2.8977417E1,5.2155872E1,4.1962437E1,6.93664E1,3.5769E1,5.3104014E0,2.3667015E1,3.771036E1,1.4445508E1,2.2175102E1,1.9787334E1],"tree_param":{"num_deleted":"0","num_feature":"5","num_nodes":"15","size_leaf_vector":"1"}},{"base_weights":[-3.0455887E-2,-5.898707E-1,1.0368849E0,-8.174448E-1,-5.226623E-2,6.7565143E-1,1.3401995E0,-4.6668723E-2,-2.951014E-2,-1.734972E-2,6.3560195E-3,2.1928385E-2,6.178353E-2,4.9429562E-2,7.2710805E-2],"categories":[],"categories_nodes":[],"categories_segments":[],"categories_sizes":[],"default_left":[0,0,0,0,0,0,0,0,0,0,0,0,0,0,0],"id":27,"left_children":[1,3,5,7,9,11,13,-1,-1,-1,-1,-1,-1,-1,-1],"loss_changes":[1.3585782E2,1.8217796E1,7.668785E0,2.2098694E0,2.4475164E0,4.4681244E0,2.2692871E-1,0E0,0E0,0E0,0E0,0E0,0E0,0E0,0E0],"parents":[2147483647,0,0,1,1,2,2,3,3,4,4,5,5,6,6],"right_children":[2,4,6,8,10,12,14,-1,-1,-1,-1,-1,-1,-1,-1],"split_conditions":[5.2479464E-1,3.3532895E-2,8.0877405E-1,5.450422E-3,1E0,2E0,8.60217E-1,-4.6668723E-2,-2.951014E-2,-1.734972E-2,6.3560195E-3,2.1928385E-2,6.178353E-2,4.9429562E-2,7.2710805E-2],"split_indices":[0,0,0,0,2,2,0,0,0,0,0,0,0,0,0],"split_type":[0,0,0,0,0,0,0,0,0,0,0,0,0,0,0],"sum_hessian":[2.255103E2,1.4825449E2,7.725581E1,1.03795944E2,4.4458534E1,3.673441E1,4.0521404E1,6.667412E1,3.7121834E1,1.6467865E1,2.7990671E1,2.7061197E1,9.673212E0,1.2290412E1,2.8230993E1],"tree_param":{"num_deleted":"0","num_feature":"5","num_nodes":"15","size_leaf_vector":"1"}},{"base_weights":[4.307604E-2,-6.3184404E-1,9.0420765E-1,-9.3213093E-1,-2.9188198E-1,6.261376E-1,1.2348282E0,-4.7299616E-2,-5.1341904E-3,4.0825896E-2,-1.691907E-2,2.7377943E-2,6.415672E-2,6.995185E-2,4.755221E-2],"categories":[],"categories_nodes":[],"categories_segments":[],"categories_sizes":[],"default_left":[0,0,0,0,0,0,0,0,0,0,0,0,0,0,0],"id":28,"left_children":[1,3,5,7,9,11,13,-1,-1,-1,-1,-1,-1,-1,-1],"loss_changes":[1.3122102E2,1.2653236E1,8.345306E0,6.705704E-1,3.4119244E0,2.1833878E0,7.3295593E-1,0E0,0E0,0E0,0E0,0E0,0E0,0E0,0E0],"parents":[2147483647,0,0,1,1,2,2,3,3,4,4,5,5,6,6],"right_children":[2,4,6,8,10,12,14,-1,-1,-1,-1,-1,-1,-1,-1],"split_conditions":[2.1009493E-1,6.055036E-3,8.0877405E-1,1E0,6.459951E-3,7.8E1,6.6E1,-4.7299616E-2,-5.1341904E-3,4.0825896E-2,-1.691907E-2,2.7377943E-2,6.415672E-2,6.995185E-2,4.755221E-2],"split_indices":[0,0,0,3,0,1,1,0,0,0,0,0,0,0,0],"split_type":[0,0,0,0,0,0,0,0,0,0,0,0,0,0,0],"sum_hessian":[2.2379495E2,1.25611786E2,9.818317E1,6.577297E1,5.9838818E1,5.4901676E1,4.328149E1,6.4553665E1,1.2193028E0,1.742535E0,5.809628E1,5.0674305E1,4.227373E0,2.4927513E1,1.8353977E1],"tree_param":{"num_deleted":"0","num_feature":"5","num_nodes":"15","size_leaf_vector":"1"}},{"base_weights":[-1.7923571E-2,-3.088881E-1,8.799488E-2,-4.0408498E-1,-1.4923774E-1,7.7058948E-3,3.5762832E-1,-3.596374E-2,-1.0033149E-2,-2.4430458E-3,-2.870116E-2,-3.8312848E-3,1.8349255E-2,3.21596E-2,6.4964215E-3],"categories":[],"categories_nodes":[],"categories_segments":[],"categories_sizes":[],"default_left":[1,0,0,0,0,0,0,0,0,0,0,0,0,0,0],"id":29,"left_children":[1,3,5,7,9,11,13,-1,-1,-1,-1,-1,-1,-1,-1],"loss_changes":[6.7294316E0,8.2515144E-1,3.4656596E0,2.1582203E0,9.675001E-1,3.799553E0,2.3052945E0,0E0,0E0,0E0,0E0,0E0,0E0,0E0,0E0],"parents":[2147483647,0,0,1,1,2,2,3,3,4,4,5,5,6,6],"right_children":[2,4,6,8,10,12,14,-1,-1,-1,-1,-1,-1,-1,-1],"split_conditions":[5.5E1,2E0,7.2E1,2E0,5.4E1,2E0,7.5E1,-3.596374E-2,-1.0033149E-2,-2.4430458E-3,-2.870116E-2,-3.8312848E-3,1.8349255E-2,3.21596E-2,6.4964215E-3],"split_indices":[1,4,1,2,1,2,1,0,0,0,0,0,0,0,0],"split_type":[0,0,0,0,0,0,0,0,0,0,0,0,0,0,0],"sum_hessian":[2.1647484E2,5.726048E1,1.5921436E2,3.491198E1,2.2348497E1,1.23475525E2,3.5738834E1,1.2699308E1,2.2212673E1,1.8978825E1,3.3696728E0,1.0063966E2,2.2835861E1,1.5045362E1,2.0693472E1],"tree_param":{"num_deleted":"0","num_feature":"5","num_nodes":"15","size_leaf_vector":"1"}},{"base_weights":[-3.243564E-2,-7.923044E-1,6.7806256E-1,-9.7382164E-1,-5.361591E-1,4.7056174E-1,1.3008412E0,-4.9493607E-2,-4.3923627E-3,-2.9853487E-2,-2.375814E-3,1.7785488E-2,4.0244702E-2,6.748945E-2,2.423363E-2],"categories":[],"categories_nodes":[],"categories_segments":[],"categories_sizes":[],"default_left":[0,0,0,0,1,0,0,0,0,0,0,0,0,0,0],"id":30,"left_children":[1,3,5,7,9,11,13,-1,-1,-1,-1,-1,-1,-1,-1],"loss_changes":[1.1890294E2,4.4249954E0,1.4099182E1,7.8115463E-1,1.3512974E0,3.052723E0,4.5975113E-1,0E0,0E0,0E0,0E0,0E0,0E0,0E0,0E0],"parents":[2147483647,0,0,1,1,2,2,3,3,4,4,5,5,6,6],"right_children":[2,4,6,8,10,12,14,-1,-1,-1,-1,-1,-1,-1,-1],"split_conditions":[6.1435685E-2,5.450422E-3,8.60217E-1,1E0,7.4E1,7.2E1,7.6E1,-4.9493607E-2,-4.3923627E-3,-2.9853487E-2,-2.375814E-3,1.7785488E-2,4.0244702E-2,6.748945E-2,2.423363E-2],"split_indices":[0,0,0,3,1,1,1,0,0,0,0,0,0,0,0],"split_type":[0,0,0,0,0,0,0,0,0,0,0,0,0,0,0],"sum_hessian":[2.182423E2,1.0540154E2,1.1284075E2,6.0047256E1,4.5354286E1,8.595679E1,2.6883965E1,5.88636E1,1.1836536E0,4.0130074E1,5.224215E0,6.5514694E1,2.0442091E1,2.4746067E1,2.1378968E0],"tree_param":{"num_deleted":"0","num_feature":"5","num_nodes":"15","size_leaf_vector":"1"}},{"base_weights":[-3.6673084E-2,-6.81915E-1,6.5684295E-1,-9.4062513E-1,-3.735165E-1,3.8182738E-1,1.071235E0,-4.7801483E-2,-5.317183E-3,3.6271494E-2,-2.1399384E-2,1.1196783E-2,4.3993317E-2,6.3682646E-2,3.674949E-2],"categories":[],"categories_nodes":[],"categories_segments":[],"categories_sizes":[],"default_left":[0,0,0,0,0,0,0,0,0,0,0,0,0,0,0],"id":31,"left_children":[1,3,5,7,9,11,13,-1,-1,-1,-1,-1,-1,-1,-1],"loss_changes":[9.773235E1,8.673351E0,1.159037E1,6.803856E-1,3.4986138E0,4.9019394E0,1.8849373E0,0E0,0E0,0E0,0E0,0E0,0E0,0E0,0E0],"parents":[2147483647,0,0,1,1,2,2,3,3,4,4,5,5,6,6],"right_children":[2,4,6,8,10,12,14,-1,-1,-1,-1,-1,-1,-1,-1],"split_conditions":[1.4697139E-1,6.055036E-3,8.0877405E-1,1E0,6.459951E-3,7.2E1,6.6E1,-4.7801483E-2,-5.317183E-3,3.6271494E-2,-2.1399384E-2,1.1196783E-2,4.3993317E-2,6.3682646E-2,3.674949E-2],"split_indices":[0,0,0,3,0,1,1,0,0,0,0,0,0,0,0],"split_type":[0,0,0,0,0,0,0,0,0,0,0,0,0,0,0],"sum_hessian":[2.1640239E2,1.1211148E2,1.0429092E2,5.985235E1,5.2259132E1,6.3842552E1,4.0448364E1,5.862396E1,1.2283907E0,1.8862702E0,5.037286E1,4.957544E1,1.4267114E1,2.3508493E1,1.693987E1],"tree_param":{"num_deleted":"0","num_feature":"5","num_nodes":"15","size_leaf_vector":"1"}},{"base_weights":[-1.189942E-2,-7.5569254E-1,6.3211954E-1,-4.6943676E-2,-4.6925429E-1,3.034047E-1,1.004174E0,4.5172043E-2,-2.6505101E-2,1.684638E-2,-3.3322755E-2,6.2310796E-2,3.375299E-2],"categories":[],"categories_nodes":[],"categories_segments":[],"categories_sizes":[],"default_left":[0,0,0,0,0,0,0,0,0,0,0,0,0],"id":32,"left_children":[1,3,5,-1,7,9,11,-1,-1,-1,-1,-1,-1],"loss_changes":[1.0232102E2,4.760128E0,1.3697636E1,0E0,3.8751612E0,2.247449E0,3.402382E0,0E0,0E0,0E0,0E0,0E0,0E0],"parents":[2147483647,0,0,1,1,2,2,4,4,5,5,6,6],"right_children":[2,4,6,-1,8,10,12,-1,-1,-1,-1,-1,-1],"split_conditions":[6.1435685E-2,6.336084E-3,7.12188E-1,-4.6943676E-2,6.6138236E-3,8.3E1,0E0,4.5172043E-2,-2.6505101E-2,1.684638E-2,-3.3322755E-2,6.2310796E-2,3.375299E-2],"split_indices":[0,0,0,0,0,1,2,0,0,0,0,0,0],"split_type":[0,0,0,0,0,0,0,0,0,0,0,0,0],"sum_hessian":[2.1160907E2,9.811745E1,1.1349162E2,5.8456196E1,3.9661247E1,6.121918E1,5.2272438E1,1.0956793E0,3.8565567E1,5.9804653E1,1.4145273E0,2.8514975E1,2.3757463E1],"tree_param":{"num_deleted":"0","num_feature":"5","num_nodes":"13","size_leaf_vector":"1"}},{"base_weights":[-3.2642625E-2,-6.883708E-1,6.4594144E-1,-9.122855E-1,-4.5208207E-1,3.849935E-1,1.048527E0,-4.647133E-2,-1.8518899E-3,-2.8203595E-2,-1.0613166E-2,6.4737885E-3,2.530603E-2,6.2869556E-2,3.6774177E-2],"categories":[],"categories_nodes":[],"categories_segments":[],"categories_sizes":[],"default_left":[0,0,0,0,0,0,0,0,0,0,0,0,0,0,0],"id":33,"left_children":[1,3,5,7,9,11,13,-1,-1,-1,-1,-1,-1,-1,-1],"loss_changes":[9.29065E1,5.2044067E0,1.0378391E1,7.686043E-1,1.3207769E0,1.9106693E0,1.6763344E0,0E0,0E0,0E0,0E0,0E0,0E0,0E0,0E0],"parents":[2147483647,0,0,1,1,2,2,3,3,4,4,5,5,6,6],"right_children":[2,4,6,8,10,12,14,-1,-1,-1,-1,-1,-1,-1,-1],"split_conditions":[1.4697139E-1,5.450422E-3,8.0877405E-1,1E0,3.6810927E-2,4.2536747E-1,0E0,-4.647133E-2,-1.8518899E-3,-2.8203595E-2,-1.0613166E-2,6.4737885E-3,2.530603E-2,6.2869556E-2,3.6774177E-2],"split_indices":[0,0,0,3,0,0,2,0,0,0,0,0,0,0,0],"split_type":[0,0,0,0,0,0,0,0,0,0,0,0,0,0,0],"sum_hessian":[2.06795E2,1.0516129E2,1.01633705E2,5.2525536E1,5.2635757E1,6.285115E1,3.8782555E1,5.1455906E1,1.0696275E0,3.4958748E1,1.7677011E1,2.0877966E1,4.1973186E1,2.1452606E1,1.7329947E1],"tree_param":{"num_deleted":"0","num_feature":"5","num_nodes":"15","size_leaf_vector":"1"}},{"base_weights":[-1.3550374E-2,-6.3685966E-1,7.0000803E-1,-8.2000643E-1,-1.661604E-1,4.676359E-1,1.0000294E0,-4.6536922E-2,-2.8917879E-2,-3.0625561E-2,-1.6015932E-3,1.7941616E-2,7.461393E-2,5.3402897E-2,1.4082141E-2],"categories":[],"categories_nodes":[],"categories_segments":[],"categories_sizes":[],"default_left":[0,0,0,0,1,0,0,0,0,0,0,0,0,0,0],"id":34,"left_children":[1,3,5,7,9,11,13,-1,-1,-1,-1,-1,-1,-1,-1],"loss_changes":[9.335502E1,9.520794E0,6.3556747E0,1.6127815E0,1.9340129E0,5.822796E0,1.743927E0,0E0,0E0,0E0,0E0,0E0,0E0,0E0,0E0],"parents":[2147483647,0,0,1,1,2,2,3,3,4,4,5,5,6,6],"right_children":[2,4,6,8,10,12,14,-1,-1,-1,-1,-1,-1,-1,-1],"split_conditions":[2.3672116E-1,2.5871161E-2,8.0877405E-1,6.055036E-3,5.5E1,7.9E1,7.6E1,-4.6536922E-2,-2.8917879E-2,-3.0625561E-2,-1.6015932E-3,1.7941616E-2,7.461393E-2,5.3402897E-2,1.4082141E-2],"split_indices":[0,0,0,0,1,1,1,0,0,0,0,0,0,0,0],"split_type":[0,0,0,0,0,0,0,0,0,0,0,0,0,0,0],"sum_hessian":[2.0789386E2,1.1102154E2,9.687232E1,7.9389404E1,3.1632133E1,5.6032658E1,4.083966E1,5.2486584E1,2.6902824E1,6.4849668E0,2.5147165E1,5.1874474E1,4.1581845E0,3.6862206E1,3.9774554E0],"tree_param":{"num_deleted":"0","num_feature":"5","num_nodes":"15","size_leaf_vector":"1"}},{"base_weights":[-3.3719733E-2,-6.2612754E-1,5.9644186E-1,-4.71753E-2,-3.4200472E-1,3.5619858E-1,8.9719415E-1,-2.5557866E-2,-5.6896727E-3,6.5831332E-3,3.1217923E-2,1.2998494E-2,5.8636535E-2],"categories":[],"categories_nodes":[],"categories_segments":[],"categories_sizes":[],"default_left":[0,0,0,0,0,0,0,0,0,0,0,0,0],"id":35,"left_children":[1,3,5,-1,7,9,11,-1,-1,-1,-1,-1,-1],"loss_changes":[7.546464E1,9.070591E0,6.7598724E0,0E0,2.1241136E0,3.2973523E0,7.2190857E0,0E0,0E0,0E0,0E0,0E0,0E0],"parents":[2147483647,0,0,1,1,2,2,4,4,5,5,6,6],"right_children":[2,4,6,-1,8,10,12,-1,-1,-1,-1,-1,-1],"split_conditions":[2.1009493E-1,5.450422E-3,2E0,-4.71753E-2,3.3532895E-2,2E0,7.12188E-1,-2.5557866E-2,-5.6896727E-3,6.5831332E-3,3.1217923E-2,1.2998494E-2,5.8636535E-2],"split_indices":[0,0,4,0,0,2,0,0,0,0,0,0,0],"split_type":[0,0,0,0,0,0,0,0,0,0,0,0,0],"sum_hessian":[2.0014822E2,1.0316777E2,9.698045E1,4.7635708E1,5.553206E1,5.5128075E1,4.1852383E1,3.1180729E1,2.4351332E1,3.0816097E1,2.4311977E1,1.3220733E1,2.8631649E1],"tree_param":{"num_deleted":"0","num_feature":"5","num_nodes":"13","size_leaf_vector":"1"}},{"base_weights":[3.6735035E-2,-6.102128E-1,6.189965E-1,-8.968462E-1,-3.341377E-1,2.0307034E-1,8.595577E-1,-4.5826085E-2,-2.7169284E-4,1.237883E-2,-1.9342648E-2,8.2356075E-4,2.535278E-2,5.529356E-2,2.9543573E-2],"categories":[],"categories_nodes":[],"categories_segments":[],"categories_sizes":[],"default_left":[0,0,0,0,0,0,0,0,0,0,0,0,0,0,0],"id":36,"left_children":[1,3,5,7,9,11,13,-1,-1,-1,-1,-1,-1,-1,-1],"loss_changes":[7.591655E1,7.2569084E0,1.0435226E1,8.06324E-1,1.6362786E0,2.2699888E0,3.7722855E0,0E0,0E0,0E0,0E0,0E0,0E0,0E0,0E0],"parents":[2147483647,0,0,1,1,2,2,3,3,4,4,5,5,6,6],"right_children":[2,4,6,8,10,12,14,-1,-1,-1,-1,-1,-1,-1,-1],"split_conditions":[1.4697139E-1,5.450422E-3,6.2019944E-1,1E0,6.459951E-3,2E0,0E0,-4.5826085E-2,-2.7169284E-4,1.237883E-2,-1.9342648E-2,8.2356075E-4,2.535278E-2,5.529356E-2,2.9543573E-2],"split_indices":[0,0,0,3,0,2,2,0,0,0,0,0,0,0,0],"split_type":[0,0,0,0,0,0,0,0,0,0,0,0,0,0,0],"sum_hessian":[1.9953165E2,9.4492966E1,1.0503867E2,4.52568E1,4.9236168E1,3.916581E1,6.587286E1,4.4251892E1,1.0049067E0,3.7839272E0,4.545224E1,2.4921879E1,1.424393E1,3.274166E1,3.3131203E1],"tree_param":{"num_deleted":"0","num_feature":"5","num_nodes":"15","size_leaf_vector":"1"}},{"base_weights":[1.1036396E-3,-7.2222465E-1,4.7425905E-1,-4.5955755E-2,-4.1008133E-1,1.11266896E-1,7.880656E-1,2.108283E-2,-2.370853E-2,7.245975E-3,-3.2555904E-2,3.3093642E-2,6.0339477E-2],"categories":[],"categories_nodes":[],"categories_segments":[],"categories_sizes":[],"default_left":[0,0,0,0,0,0,0,0,0,0,0,0,0],"id":37,"left_children":[1,3,5,-1,7,9,11,-1,-1,-1,-1,-1,-1],"loss_changes":[6.700427E1,4.381283E0,1.3394056E1,0E0,1.8924818E0,1.5321673E0,2.5467567E0,0E0,0E0,0E0,0E0,0E0,0E0],"parents":[2147483647,0,0,1,1,2,2,4,4,5,5,6,6],"right_children":[2,4,6,-1,8,10,12,-1,-1,-1,-1,-1,-1],"split_conditions":[4.0754285E-2,6.055036E-3,6.2019944E-1,-4.5955755E-2,6.459951E-3,8.3E1,9.0036315E-1,2.108283E-2,-2.370853E-2,7.245975E-3,-3.2555904E-2,3.3093642E-2,6.0339477E-2],"split_indices":[0,0,0,0,0,1,0,0,0,0,0,0,0],"split_type":[0,0,0,0,0,0,0,0,0,0,0,0,0],"sum_hessian":[1.937769E2,7.642187E1,1.1735504E2,4.5670067E1,3.0751802E1,5.5041264E1,6.2313774E1,1.8008976E0,2.8950905E1,5.349006E1,1.5512031E0,4.9866085E1,1.2447687E1],"tree_param":{"num_deleted":"0","num_feature":"5","num_nodes":"13","size_leaf_vector":"1"}},{"base_weights":[-3.1140268E-2,-7.4463254E-1,3.9648494E-1,-8.867844E-1,-5.2734005E-1,1.877696E-1,8.952959E-1,-1.9758927E-2,-4.524926E-2,-3.0550772E-2,5.434604E-3,-3.2707185E-2,1.1120706E-2,5.0576508E-2,-7.811253E-3],"categories":[],"categories_nodes":[],"categories_segments":[],"categories_sizes":[],"default_left":[0,0,0,0,1,1,0,0,0,0,0,0,0,0,0],"id":38,"left_children":[1,3,5,7,9,11,13,-1,-1,-1,-1,-1,-1,-1,-1],"loss_changes":[5.919039E1,1.7774773E0,1.2465225E1,2.2392273E-2,1.7275267E0,2.6776998E0,4.500725E0,0E0,0E0,0E0,0E0,0E0,0E0,0E0,0E0],"parents":[2147483647,0,0,1,1,2,2,3,3,4,4,5,5,6,6],"right_children":[2,4,6,8,10,12,14,-1,-1,-1,-1,-1,-1,-1,-1],"split_conditions":[3.5263244E-2,5.450422E-3,8.0877405E-1,4.3E1,7.4E1,4.3E1,7.6E1,-1.9758927E-2,-4.524926E-2,-3.0550772E-2,5.434604E-3,-3.2707185E-2,1.1120706E-2,5.0576508E-2,-7.811253E-3],"split_indices":[0,0,0,1,1,1,1,0,0,0,0,0,0,0,0],"split_type":[0,0,0,0,0,0,0,0,0,0,0,0,0,0,0],"sum_hessian":[1.9203099E2,7.1684364E1,1.2034662E2,4.147229E1,3.0212076E1,8.58156E1,3.4531017E1,2.2914712E0,3.918082E1,2.673429E1,3.477787E0,2.68498E0,8.3130615E1,3.1128168E1,3.4028504E0],"tree_param":{"num_deleted":"0","num_feature":"5","num_nodes":"15","size_leaf_vector":"1"}},{"base_weights":[-3.171466E-2,-8.1008875E-1,3.84068E-1,-4.778744E-2,-5.512452E-1,1.8684834E-1,8.4681743E-1,3.3872072E-3,-3.2705154E-2,1.6202839E-3,1.8818298E-2,5.2740198E-2,2.5252426E-2],"categories":[],"categories_nodes":[],"categories_segments":[],"categories_sizes":[],"default_left":[0,0,0,0,0,0,0,0,0,0,0,0,0],"id":39,"left_children":[1,3,5,-1,7,9,11,-1,-1,-1,-1,-1,-1],"loss_changes":[6.181781E1,1.980156E0,1.1209204E1,0E0,1.7192073E0,2.5816226E0,2.0929737E0,0E0,0E0,0E0,0E0,0E0,0E0],"parents":[2147483647,0,0,1,1,2,2,4,4,5,5,6,6],"right_children":[2,4,6,-1,8,10,12,-1,-1,-1,-1,-1,-1],"split_conditions":[2.5871161E-2,5.450422E-3,8.0877405E-1,-4.778744E-2,6.459951E-3,5.2479464E-1,1E0,3.3872072E-3,-3.2705154E-2,1.6202839E-3,1.8818298E-2,5.2740198E-2,2.5252426E-2],"split_indices":[0,0,0,0,0,0,2,0,0,0,0,0,0],"split_type":[0,0,0,0,0,0,0,0,0,0,0,0,0],"sum_hessian":[1.8904982E2,6.5493355E1,1.23556465E2,4.018662E1,2.5306736E1,8.7618164E1,3.5938305E1,3.6546671E0,2.165207E1,4.892166E1,3.86965E1,2.104492E1,1.4893385E1],"tree_param":{"num_deleted":"0","num_feature":"5","num_nodes":"13","size_leaf_vector":"1"}},{"base_weights":[8.214737E-3,-6.794935E-1,4.760286E-1,-4.6403695E-2,-4.0332243E-1,1.3923898E-1,7.492104E-1,3.6061634E-3,-2.2787854E-2,-1.7038746E-2,1.6968764E-2,3.2135174E-2,5.6893904E-2],"categories":[],"categories_nodes":[],"categories_segments":[],"categories_sizes":[],"default_left":[0,0,0,0,0,1,0,0,0,0,0,0,0],"id":40,"left_children":[1,3,5,-1,7,9,11,-1,-1,-1,-1,-1,-1],"loss_changes":[6.073665E1,4.8730545E0,1.0232098E1,0E0,9.796305E-1,5.067369E0,1.8270531E0,0E0,0E0,0E0,0E0,0E0,0E0],"parents":[2147483647,0,0,1,1,2,2,4,4,5,5,6,6],"right_children":[2,4,6,-1,8,10,12,-1,-1,-1,-1,-1,-1],"split_conditions":[6.1435685E-2,5.450422E-3,6.2019944E-1,-4.6403695E-2,6.459951E-3,5.9E1,9.0036315E-1,3.6061634E-3,-2.2787854E-2,-1.7038746E-2,1.6968764E-2,3.2135174E-2,5.6893904E-2],"split_indices":[0,0,0,0,0,1,0,0,0,0,0,0,0],"split_type":[0,0,0,0,0,0,0,0,0,0,0,0,0],"sum_hessian":[1.8678223E2,7.543571E1,1.1134651E2,3.84587E1,3.697701E1,5.054378E1,6.0802727E1,3.6356497E0,3.3341362E1,1.4665888E1,3.5877895E1,4.9807533E1,1.0995195E1],"tree_param":{"num_deleted":"0","num_feature":"5","num_nodes":"13","size_leaf_vector":"1"}},{"base_weights":[6.8257464E-4,-8.308737E-2,3.5433683E-1,-2.4824224E-1,-7.7873315E-3,9.749003E-1,2.1964952E-1,2.77423E-3,-2.2672705E-2,-1.513128E-3,4.764523E-2,9.739766E-3,6.6178285E-2,1.5323765E-2,-1.6581284E-2],"categories":[],"categories_nodes":[],"categories_segments":[],"categories_sizes":[],"default_left":[1,1,0,0,0,0,0,0,0,0,0,0,0,0,0],"id":41,"left_children":[1,3,5,7,9,11,13,-1,-1,-1,-1,-1,-1,-1,-1],"loss_changes":[5.5227704E0,1.8725069E0,2.7697601E0,2.9650698E0,2.2864037E0,1.3947535E0,1.5674715E0,0E0,0E0,0E0,0E0,0E0,0E0,0E0,0E0],"parents":[2147483647,0,0,1,1,2,2,3,3,4,4,5,5,6,6],"right_children":[2,4,6,8,10,12,14,-1,-1,-1,-1,-1,-1,-1,-1],"split_conditions":[7.2E1,5.5E1,7.3E1,1E0,3E0,1E0,8.3E1,2.77423E-3,-2.2672705E-2,-1.513128E-3,4.764523E-2,9.739766E-3,6.6178285E-2,1.5323765E-2,-1.6581284E-2],"split_indices":[1,1,1,2,2,2,1,0,0,0,0,0,0,0,0],"split_type":[0,0,0,0,0,0,0,0,0,0,0,0,0,0,0],"sum_hessian":[1.8442511E2,1.497249E2,3.470022E1,4.6168106E1,1.0355679E2,5.075752E0,2.9624464E1,1.890988E1,2.7258226E1,1.0213584E2,1.4209521E0,2.0493095E0,3.0264425E0,2.597713E1,3.6473331E0],"tree_param":{"num_deleted":"0","num_feature":"5","num_nodes":"15","size_leaf_vector":"1"}},{"base_weights":[4.686548E-2,-6.539795E-1,4.3307886E-1,-8.970214E-1,-3.1778777E-1,2.683606E-1,5.3851027E-2,-1.706074E-2,-4.595889E-2,1.36278225E-2,-2.0731917E-2,3.5674486E-3,2.2472126E-2],"categories":[],"categories_nodes":[],"categories_segments":[],"categories_sizes":[],"default_left":[0,0,0,0,0,0,0,0,0,0,0,0,0],"id":42,"left_children":[1,3,5,7,9,11,-1,-1,-1,-1,-1,-1,-1],"loss_changes":[4.982287E1,5.060568E0,1.22906475E1,1.4722633E-1,1.7710712E0,3.3846636E0,0E0,0E0,0E0,0E0,0E0,0E0,0E0],"parents":[2147483647,0,0,1,1,2,2,3,3,4,4,5,5],"right_children":[2,4,6,8,10,12,-1,-1,-1,-1,-1,-1,-1],"split_conditions":[3.5263244E-2,5.450422E-3,8.60217E-1,4.3E1,6.459951E-3,5.2479464E-1,5.3851027E-2,-1.706074E-2,-4.595889E-2,1.36278225E-2,-2.0731917E-2,3.5674486E-3,2.2472126E-2],"split_indices":[0,0,0,1,0,0,0,0,0,0,0,0,0],"split_type":[0,0,0,0,0,0,0,0,0,0,0,0,0],"sum_hessian":[1.8202214E2,6.442306E1,1.1759908E2,3.6423416E1,2.7999641E1,9.4773155E1,2.2825928E1,2.025014E0,3.43984E1,3.6904745E0,2.4309166E1,4.605774E1,4.8715416E1],"tree_param":{"num_deleted":"0","num_feature":"5","num_nodes":"13","size_leaf_vector":"1"}},{"base_weights":[-1.0050538E-2,-7.2942E-2,2.5315517E-1,-4.6903026E-1,-4.3970644E-2,6.558232E-1,-4.9059164E-2,-3.1856887E-2,1.7425155E-2,-5.0182287E-3,6.4213024E-3,4.7231834E-2,2.0811027E-2,3.891466E-3,-3.657803E-2],"categories":[],"categories_nodes":[],"categories_segments":[],"categories_sizes":[],"default_left":[1,1,0,0,0,0,0,0,0,0,0,0,0,0,0],"id":43,"left_children":[1,3,5,7,9,11,13,-1,-1,-1,-1,-1,-1,-1,-1],"loss_changes":[3.0574033E0,1.6886566E0,4.3680477E0,1.6031153E0,1.373064E0,6.687536E-1,1.9001799E0,0E0,0E0,0E0,0E0,0E0,0E0,0E0,0E0],"parents":[2147483647,0,0,1,1,2,2,3,3,4,4,5,5,6,6],"right_children":[2,4,6,8,10,12,14,-1,-1,-1,-1,-1,-1,-1,-1],"split_conditions":[7.2E1,4.5E1,7.5E1,2E0,2E0,7.3E1,8.4E1,-3.1856887E-2,1.7425155E-2,-5.0182287E-3,6.4213024E-3,4.7231834E-2,2.0811027E-2,3.891466E-3,-3.657803E-2],"split_indices":[1,1,1,4,2,1,1,0,0,0,0,0,0,0,0],"split_type":[0,0,0,0,0,0,0,0,0,0,0,0,0,0,0],"sum_hessian":[1.8258397E2,1.4795407E2,3.4629887E1,9.049017E0,1.3890506E2,1.4345714E1,2.0284174E1,7.688672E0,1.3603449E0,1.049816E2,3.3923462E1,5.170616E0,9.175097E0,1.7851286E1,2.4328892E0],"tree_param":{"num_deleted":"0","num_feature":"5","num_nodes":"15","size_leaf_vector":"1"}},{"base_weights":[-2.6476081E-2,-6.419081E-1,3.6097217E-1,-8.6347413E-1,-4.0912625E-1,1.4962515E-1,8.1601787E-1,-1.6178394E-2,-4.425306E-2,-3.302913E-2,-1.5989235E-2,2.6320007E-3,2.1605624E-2,4.5046326E-2,-4.4877506E-3],"categories":[],"categories_nodes":[],"categories_segments":[],"categories_sizes":[],"default_left":[0,0,0,0,1,0,0,0,0,0,0,0,0,0,0],"id":44,"left_children":[1,3,5,7,9,11,13,-1,-1,-1,-1,-1,-1,-1,-1],"loss_changes":[4.404276E1,3.326357E0,1.078302E1,1.2913895E-1,6.1304617E-1,2.1321325E0,2.8293667E0,0E0,0E0,0E0,0E0,0E0,0E0,0E0,0E0],"parents":[2147483647,0,0,1,1,2,2,3,3,4,4,5,5,6,6],"right_children":[2,4,6,8,10,12,14,-1,-1,-1,-1,-1,-1,-1,-1],"split_conditions":[6.1435685E-2,5.450422E-3,8.0877405E-1,4.3E1,5.4E1,7.2E1,7.8E1,-1.6178394E-2,-4.425306E-2,-3.302913E-2,-1.5989235E-2,2.6320007E-3,2.1605624E-2,4.5046326E-2,-4.4877506E-3],"split_indices":[0,0,0,1,1,1,1,0,0,0,0,0,0,0,0],"split_type":[0,0,0,0,0,0,0,0,0,0,0,0,0,0,0],"sum_hessian":[1.8273415E2,7.034296E1,1.1239119E2,3.465158E1,3.5691376E1,7.765361E1,3.473758E1,1.9469132E0,3.270467E1,7.6804523E0,2.8010923E1,5.869013E1,1.8963482E1,3.176521E1,2.9723692E0],"tree_param":{"num_deleted":"0","num_feature":"5","num_nodes":"15","size_leaf_vector":"1"}},{"base_weights":[-4.2083383E-2,-1.7812131E-1,6.7969605E-2,1.7436562E-2,-3.4882218E-1,6.027687E-3,1.7675754E-1,1.2996498E-2,-9.815207E-4,-2.7957333E-2,-9.230305E-3,-2.74887E-3,1.1249219E-2,1.5507164E-2,-1.0244854E-2],"categories":[],"categories_nodes":[],"categories_segments":[],"categories_sizes":[],"default_left":[1,0,0,0,0,0,0,0,0,0,0,0,0,0,0],"id":45,"left_children":[1,3,5,7,9,11,13,-1,-1,-1,-1,-1,-1,-1,-1],"loss_changes":[2.727871E0,2.7232945E0,6.7952144E-1,3.546576E-1,1.399508E0,8.8583237E-1,1.9271557E0,0E0,0E0,0E0,0E0,0E0,0E0,0E0,0E0],"parents":[2147483647,0,0,1,1,2,2,3,3,4,4,5,5,6,6],"right_children":[2,4,6,8,10,12,14,-1,-1,-1,-1,-1,-1,-1,-1],"split_conditions":[6.2E1,1E0,7.2E1,4.9E1,2E0,2E0,2E0,1.2996498E-2,-9.815207E-4,-2.7957333E-2,-9.230305E-3,-2.74887E-3,1.1249219E-2,1.5507164E-2,-1.0244854E-2],"split_indices":[1,2,1,1,2,2,2,0,0,0,0,0,0,0,0],"split_type":[0,0,0,0,0,0,0,0,0,0,0,0,0,0,0],"sum_hessian":[1.8039703E2,8.039778E1,9.999925E1,3.788916E1,4.2508625E1,6.4391365E1,3.5607887E1,4.226542E0,3.3662617E1,1.7583328E1,2.4925297E1,5.094588E1,1.3445483E1,2.6524963E1,9.082926E0],"tree_param":{"num_deleted":"0","num_feature":"5","num_nodes":"15","size_leaf_vector":"1"}},{"base_weights":[-5.3351875E-2,-5.883426E-1,4.051281E-1,-9.205186E-1,-3.2711944E-1,1.7218849E-1,8.3450156E-1,-4.722186E-2,-1.9563628E-2,-1.1511576E-2,-3.8941152E-2,-1.1028413E-3,1.6518837E-2,5.526218E-2,2.5112385E-2],"categories":[],"categories_nodes":[],"categories_segments":[],"categories_sizes":[],"default_left":[0,0,0,1,0,0,0,0,0,0,0,0,0,0,0],"id":46,"left_children":[1,3,5,7,9,11,13,-1,-1,-1,-1,-1,-1,-1,-1],"loss_changes":[4.4222374E1,6.915079E0,9.573783E0,8.691788E-2,1.9259644E0,1.9814061E0,2.4953384E0,0E0,0E0,0E0,0E0,0E0,0E0,0E0,0E0],"parents":[2147483647,0,0,1,1,2,2,3,3,4,4,5,5,6,6],"right_children":[2,4,6,8,10,12,14,-1,-1,-1,-1,-1,-1,-1,-1],"split_conditions":[1.7675585E-1,6.055036E-3,8.0877405E-1,7.3E1,1.0052644E-1,6.4E1,6.5E1,-4.722186E-2,-1.9563628E-2,-1.1511576E-2,-3.8941152E-2,-1.1028413E-3,1.6518837E-2,5.526218E-2,2.5112385E-2],"split_indices":[0,0,0,1,0,1,1,0,0,0,0,0,0,0,0],"split_type":[0,0,0,0,0,0,0,0,0,0,0,0,0,0,0],"sum_hessian":[1.7831982E2,8.216267E1,9.615716E1,3.5058186E1,4.710448E1,6.3246365E1,3.291079E1,3.2791714E1,2.2664747E0,4.0028324E1,7.076156E0,2.8774113E1,3.447225E1,1.6852102E1,1.605869E1],"tree_param":{"num_deleted":"0","num_feature":"5","num_nodes":"15","size_leaf_vector":"1"}},{"base_weights":[-3.7936293E-2,-5.325212E-2,6.369385E-1,5.9523623E-2,-1.5917347E-1,3.5641927E-3,5.193175E-2,1.3878475E-2,8.523984E-4,-2.4816463E-2,-1.9127846E-3],"categories":[],"categories_nodes":[],"categories_segments":[],"categories_sizes":[],"default_left":[0,0,1,0,1,0,0,0,0,0,0],"id":47,"left_children":[1,3,5,7,9,-1,-1,-1,-1,-1,-1],"loss_changes":[1.8672608E0,2.0922294E0,8.3782995E-1,7.84118E-1,3.657601E0,0E0,0E0,0E0,0E0,0E0,0E0],"parents":[2147483647,0,0,1,1,2,2,3,3,4,4],"right_children":[2,4,6,8,10,-1,-1,-1,-1,-1,-1],"split_conditions":[3E0,1E0,5.6E1,5.3E1,5.5E1,3.5641927E-3,5.193175E-2,1.3878475E-2,8.523984E-4,-2.4816463E-2,-1.9127846E-3],"split_indices":[2,2,1,1,1,0,0,0,0,0,0],"split_type":[0,0,0,0,0,0,0,0,0,0,0],"sum_hessian":[1.7636992E2,1.733568E2,3.0131216E0,8.417389E1,8.9182915E1,1.740155E0,1.2729667E0,1.2821386E1,7.13525E1,2.272209E1,6.646082E1],"tree_param":{"num_deleted":"0","num_feature":"5","num_nodes":"11","size_leaf_vector":"1"}},{"base_weights":[3.4639977E-2,-6.011101E-1,4.1135624E-1,-4.3980837E-2,-3.2943106E-1,2.793833E-1,9.935386E-1,1.5371426E-2,-2.0529902E-2,4.0510744E-3,1.9430963E-2,5.3820897E-2,2.9247666E-2],"categories":[],"categories_nodes":[],"categories_segments":[],"categories_sizes":[],"default_left":[0,0,0,0,0,0,0,0,0,0,0,0,0],"id":48,"left_children":[1,3,5,-1,7,9,11,-1,-1,-1,-1,-1,-1],"loss_changes":[4.28941E1,4.7541275E0,8.358881E0,0E0,1.9531837E0,1.9842138E0,6.0512543E-2,0E0,0E0,0E0,0E0,0E0,0E0],"parents":[2147483647,0,0,1,1,2,2,4,4,5,5,6,6],"right_children":[2,4,6,-1,8,10,12,-1,-1,-1,-1,-1,-1],"split_conditions":[6.1435685E-2,5.450422E-3,8.60217E-1,-4.3980837E-2,6.459951E-3,4.2536747E-1,2E0,1.5371426E-2,-2.0529902E-2,4.0510744E-3,1.9430963E-2,5.3820897E-2,2.9247666E-2],"split_indices":[0,0,0,0,0,0,2,0,0,0,0,0,0],"split_type":[0,0,0,0,0,0,0,0,0,0,0,0,0],"sum_hessian":[1.7706804E2,6.566146E1,1.11406586E2,3.1318342E1,3.4343117E1,9.202552E1,1.938106E1,3.5670884E0,3.077603E1,3.3299175E1,5.872635E1,1.4753827E1,4.6272326E0],"tree_param":{"num_deleted":"0","num_feature":"5","num_nodes":"13","size_leaf_vector":"1"}},{"base_weights":[-4.6290714E-2,-4.2884338E-1,5.2787954E-1,-8.4314626E-1,-2.4600813E-1,4.2810392E-1,1.0511502E0,-1.2990174E-2,-4.339143E-2,-3.5288748E-3,-1.8535718E-2,-2.115956E-2,2.2695016E-2,5.624888E-2,1.5838765E-2],"categories":[],"categories_nodes":[],"categories_segments":[],"categories_sizes":[],"default_left":[0,0,0,0,0,0,0,0,0,0,0,0,0,0,0],"id":49,"left_children":[1,3,5,7,9,11,13,-1,-1,-1,-1,-1,-1,-1,-1],"loss_changes":[3.7849735E1,7.621155E0,3.149269E0,2.2422028E-1,1.5734329E0,1.5006132E0,2.0493507E-1,0E0,0E0,0E0,0E0,0E0,0E0,0E0,0E0],"parents":[2147483647,0,0,1,1,2,2,3,3,4,4,5,5,6,6],"right_children":[2,4,6,8,10,12,14,-1,-1,-1,-1,-1,-1,-1,-1],"split_conditions":[5.2479464E-1,5.450422E-3,9.0036315E-1,4.3E1,6.3E1,4.3E1,7.3E1,-1.2990174E-2,-4.339143E-2,-3.5288748E-3,-1.8535718E-2,-2.115956E-2,2.2695016E-2,5.624888E-2,1.5838765E-2],"split_indices":[0,0,0,1,1,1,1,0,0,0,0,0,0,0,0],"split_type":[0,0,0,0,0,0,0,0,0,0,0,0,0,0,0],"sum_hessian":[1.7028749E2,1.0234869E2,6.79388E1,3.0231926E1,7.211676E1,5.8585945E1,9.352852E0,1.6951258E0,2.85368E1,3.0615007E1,4.150175E1,1.2700062E0,5.731594E1,8.015192E0,1.33766E0],"tree_param":{"num_deleted":"0","num_feature":"5","num_nodes":"15","size_leaf_vector":"1"}},{"base_weights":[7.1988446E-3,-1.8553986E-1,7.228347E-2,5.4859422E-2,-3.4497136E-1,2.6761526E-3,3.1267604E-1,1.00020105E-2,-3.1133508E-2,-4.4700578E-2,-1.0953355E-3,-2.6558093E-3,8.4761055E-3,5.059274E-3,2.4756748E-2],"categories":[],"categories_nodes":[],"categories_segments":[],"categories_sizes":[],"default_left":[1,0,0,0,0,0,0,0,0,0,0,0,0,0,0],"id":50,"left_children":[1,3,5,7,9,11,13,-1,-1,-1,-1,-1,-1,-1,-1],"loss_changes":[2.1452532E0,1.6739327E0,2.1370435E0,1.903094E0,4.6098967E0,9.406615E-1,1.0565901E0,0E0,0E0,0E0,0E0,0E0,0E0,0E0,0E0],"parents":[2147483647,0,0,1,1,2,2,3,3,4,4,5,5,6,6],"right_children":[2,4,6,8,10,12,14,-1,-1,-1,-1,-1,-1,-1,-1],"split_conditions":[5.5E1,1E0,2E0,5.4E1,2E0,7.2E1,6.7E1,1.00020105E-2,-3.1133508E-2,-4.4700578E-2,-1.0953355E-3,-2.6558093E-3,8.4761055E-3,5.059274E-3,2.4756748E-2],"split_indices":[1,2,2,1,2,1,1,0,0,0,0,0,0,0,0],"split_type":[0,0,0,0,0,0,0,0,0,0,0,0,0,0,0],"sum_hessian":[1.6894469E2,4.2181004E1,1.2676369E2,1.7081106E1,2.5099895E1,9.908428E1,2.7679403E1,1.464725E1,2.4338565E0,8.64339E0,1.6456507E1,7.476495E1,2.431933E1,1.35398035E1,1.41396E1],"tree_param":{"num_deleted":"0","num_feature":"5","num_nodes":"15","size_leaf_vector":"1"}},{"base_weights":[-6.9631845E-2,-1.2602292E-1,1.5315014E-1,-1.4541541E-1,5.1927704E-1,2.342126E-1,-5.947575E-1,-1.3395536E-2,-5.910175E-4,-1.0350619E-3,4.9244504E-2,-3.3178856E-4,1.8178575E-2,-4.9310233E-2,9.248878E-3],"categories":[],"categories_nodes":[],"categories_segments":[],"categories_sizes":[],"default_left":[1,0,0,0,1,0,0,0,0,0,0,0,0,0,0],"id":51,"left_children":[1,3,5,7,9,11,13,-1,-1,-1,-1,-1,-1,-1,-1],"loss_changes":[2.1704056E0,1.7922847E0,2.2635593E0,2.1891773E0,1.081703E0,1.0096582E0,1.3144437E0,0E0,0E0,0E0,0E0,0E0,0E0,0E0,0E0],"parents":[2147483647,0,0,1,1,2,2,3,3,4,4,5,5,6,6],"right_children":[2,4,6,8,10,12,14,-1,-1,-1,-1,-1,-1,-1,-1],"split_conditions":[7.2E1,3E0,8.4E1,2E0,5.6E1,1E0,8.7E1,-1.3395536E-2,-5.910175E-4,-1.0350619E-3,4.9244504E-2,-3.3178856E-4,1.8178575E-2,-4.9310233E-2,9.248878E-3],"split_indices":[1,2,1,4,1,2,1,0,0,0,0,0,0,0,0],"split_type":[0,0,0,0,0,0,0,0,0,0,0,0,0,0,0],"sum_hessian":[1.7022661E2,1.3618857E2,3.4038036E1,1.329673E2,3.2212648E0,3.1329237E1,2.708798E0,6.884077E1,6.412653E1,1.9339614E0,1.2873036E0,1.127865E1,2.0050587E1,1.627138E0,1.0816599E0],"tree_param":{"num_deleted":"0","num_feature":"5","num_nodes":"15","size_leaf_vector":"1"}},{"base_weights":[-4.6401028E-2,-7.0059574E-1,2.6847485E-1,-8.8170755E-1,-4.2358875E-1,1.3796373E-1,8.722596E-1,-1.4182637E-2,-4.534629E-2,4.7241684E-2,-2.6373047E-2,-2.1312955E-4,1.6628195E-2,5.741454E-2,3.1193485E-2],"categories":[],"categories_nodes":[],"categories_segments":[],"categories_sizes":[],"default_left":[0,0,0,0,0,0,0,0,0,0,0,0,0,0,0],"id":52,"left_children":[1,3,5,7,9,11,13,-1,-1,-1,-1,-1,-1,-1,-1],"loss_changes":[3.5420307E1,2.4285603E0,9.035233E0,2.3814201E-1,3.9104543E0,2.6784697E0,6.866083E-1,0E0,0E0,0E0,0E0,0E0,0E0,0E0,0E0],"parents":[2147483647,0,0,1,1,2,2,3,3,4,4,5,5,6,6],"right_children":[2,4,6,8,10,12,14,-1,-1,-1,-1,-1,-1,-1,-1],"split_conditions":[3.5263244E-2,6.336084E-3,8.60217E-1,4.3E1,6.6138236E-3,6.2019944E-1,6.1E1,-1.4182637E-2,-4.534629E-2,4.7241684E-2,-2.6373047E-2,-2.1312955E-4,1.6628195E-2,5.741454E-2,3.1193485E-2],"split_indices":[0,0,0,1,0,0,1,0,0,0,0,0,0,0,0],"split_type":[0,0,0,0,0,0,0,0,0,0,0,0,0,0,0],"sum_hessian":[1.7003836E2,5.4851795E1,1.1518658E2,3.1846828E1,2.3004967E1,9.572388E1,1.94627E1,1.7841173E0,3.006271E1,1.0518373E0,2.1953129E1,5.586918E1,3.98547E1,7.5024376E0,1.1960262E1],"tree_param":{"num_deleted":"0","num_feature":"5","num_nodes":"15","size_leaf_vector":"1"}},{"base_weights":[-1.4413748E-2,-6.595653E-1,2.5060654E-1,-8.38282E-1,-3.5482115E-1,-1.0017022E-3,5.2005297E-1,-1.33984005E-2,-4.3165475E-2,4.199216E-2,-2.5637198E-2,-1.5759414E-2,7.212072E-3,1.9278841E-2,5.2457668E-2],"categories":[],"categories_nodes":[],"categories_segments":[],"categories_sizes":[],"default_left":[0,0,0,0,0,0,0,0,0,0,0,0,0,0,0],"id":53,"left_children":[1,3,5,7,9,11,13,-1,-1,-1,-1,-1,-1,-1,-1],"loss_changes":[2.8940712E1,2.3864841E0,8.137191E0,2.0156479E-1,4.1946344E0,2.9231951E0,3.7191849E0,0E0,0E0,0E0,0E0,0E0,0E0,0E0,0E0],"parents":[2147483647,0,0,1,1,2,2,3,3,4,4,5,5,6,6],"right_children":[2,4,6,8,10,12,14,-1,-1,-1,-1,-1,-1,-1,-1],"split_conditions":[2.330126E-2,6.055036E-3,6.2019944E-1,4.3E1,6.459951E-3,0E0,9.0036315E-1,-1.33984005E-2,-4.3165475E-2,4.199216E-2,-2.5637198E-2,-1.5759414E-2,7.212072E-3,1.9278841E-2,5.2457668E-2],"split_indices":[0,0,0,1,0,2,0,0,0,0,0,0,0,0,0],"split_type":[0,0,0,0,0,0,0,0,0,0,0,0,0,0,0],"sum_hessian":[1.6729872E2,4.8279903E1,1.1901882E2,2.932912E1,1.8950783E1,6.2061897E1,5.695692E1,1.7251115E0,2.760401E1,1.7084595E0,1.7242323E1,1.9250212E1,4.2811684E1,4.6792805E1,1.0164119E1],"tree_param":{"num_deleted":"0","num_feature":"5","num_nodes":"15","size_leaf_vector":"1"}},{"base_weights":[9.725861E-3,-6.595471E-2,3.0538815E-1,-8.293805E-2,5.291628E-1,1.0605671E0,1.4931814E-1,7.2191306E-4,-9.043241E-3,8.274989E-4,4.829657E-2,1.0685353E-2,7.048472E-2,1.0700077E-2,-1.7322727E-2],"categories":[],"categories_nodes":[],"categories_segments":[],"categories_sizes":[],"default_left":[1,0,0,0,1,0,0,0,0,0,0,0,0,0,0],"id":54,"left_children":[1,3,5,7,9,11,13,-1,-1,-1,-1,-1,-1,-1,-1],"loss_changes":[3.7738786E0,1.4021888E0,3.892173E0,1.2568167E0,8.492063E-1,1.3905783E0,1.0248023E0,0E0,0E0,0E0,0E0,0E0,0E0,0E0,0E0],"parents":[2147483647,0,0,1,1,2,2,3,3,4,4,5,5,6,6],"right_children":[2,4,6,8,10,12,14,-1,-1,-1,-1,-1,-1,-1,-1],"split_conditions":[7.2E1,3E0,7.3E1,1E0,5.6E1,1E0,8.4E1,7.2191306E-4,-9.043241E-3,8.274989E-4,4.829657E-2,1.0685353E-2,7.048472E-2,1.0700077E-2,-1.7322727E-2],"split_indices":[1,2,1,2,1,2,1,0,0,0,0,0,0,0,0],"split_type":[0,0,0,0,0,0,0,0,0,0,0,0,0,0,0],"sum_hessian":[1.667581E2,1.3339098E2,3.3367115E1,1.3052667E2,2.864308E0,4.7222095E0,2.8644907E1,6.587476E1,6.465191E1,1.7952305E0,1.0690776E0,1.8490884E0,2.8731208E0,2.5841692E1,2.8032146E0],"tree_param":{"num_deleted":"0","num_feature":"5","num_nodes":"15","size_leaf_vector":"1"}},{"base_weights":[-2.172743E-2,-6.5761906E-1,2.8748134E-1,-7.788158E-1,-4.1201207E-1,2.1578805E-1,1.0136446E0,-4.0034413E-2,-1.9168992E-3,-3.295495E-2,-3.6320926E-3,5.382151E-3,2.0539552E-2,5.44959E-2,1.4547142E-2],"categories":[],"categories_nodes":[],"categories_segments":[],"categories_sizes":[],"default_left":[0,1,0,0,0,0,0,0,0,0,0,0,0,0,0],"id":55,"left_children":[1,3,5,7,9,11,13,-1,-1,-1,-1,-1,-1,-1,-1],"loss_changes":[3.287015E1,1.3068771E0,5.639593E0,5.4413986E-1,1.6452558E0,2.1423955E0,2.2536087E-1,0E0,0E0,0E0,0E0,0E0,0E0,0E0,0E0],"parents":[2147483647,0,0,1,1,2,2,3,3,4,4,5,5,6,6],"right_children":[2,4,6,8,10,12,14,-1,-1,-1,-1,-1,-1,-1,-1],"split_conditions":[4.0754285E-2,6.5E1,9.0036315E-1,3.5263244E-2,1E0,7.12188E-1,7.4E1,-4.0034413E-2,-1.9168992E-3,-3.295495E-2,-3.6320926E-3,5.382151E-3,2.0539552E-2,5.44959E-2,1.4547142E-2],"split_indices":[0,1,0,0,2,0,1,0,0,0,0,0,0,0,0],"split_type":[0,0,0,0,0,0,0,0,0,0,0,0,0,0,0],"sum_hessian":[1.6521176E2,5.3683727E1,1.1152802E2,3.449226E1,1.9191467E1,1.0268701E2,8.841013E0,3.3423668E1,1.0685897E0,1.0560506E1,8.630962E0,6.705279E1,3.5634224E1,7.537405E0,1.3036084E0],"tree_param":{"num_deleted":"0","num_feature":"5","num_nodes":"15","size_leaf_vector":"1"}},{"base_weights":[1.01470975E-2,-1.3501944E-1,1.0986453E-1,8.151229E-3,-2.4813102E-1,-8.847334E-2,2.5412583E-1,1.2827942E-2,-7.843672E-3,-2.151846E-2,6.605647E-4,-5.734178E-3,2.0985188E-2,2.9726533E-2,9.025892E-3],"categories":[],"categories_nodes":[],"categories_segments":[],"categories_sizes":[],"default_left":[1,0,0,0,1,0,0,0,0,0,0,0,0,0,0],"id":56,"left_children":[1,3,5,7,9,11,13,-1,-1,-1,-1,-1,-1,-1,-1],"loss_changes":[2.4362288E0,1.11235E0,2.8754573E0,1.3204237E0,1.831409E0,6.172441E-1,1.3455272E0,0E0,0E0,0E0,0E0,0E0,0E0,0E0,0E0],"parents":[2147483647,0,0,1,1,2,2,3,3,4,4,5,5,6,6],"right_children":[2,4,6,8,10,12,14,-1,-1,-1,-1,-1,-1,-1,-1],"split_conditions":[6.1E1,1E0,0E0,5.3E1,5.4E1,7.9E1,6.4E1,1.2827942E-2,-7.843672E-3,-2.151846E-2,6.605647E-4,-5.734178E-3,2.0985188E-2,2.9726533E-2,9.025892E-3],"split_indices":[1,2,2,1,1,1,1,0,0,0,0,0,0,0,0],"split_type":[0,0,0,0,0,0,0,0,0,0,0,0,0,0,0],"sum_hessian":[1.6627385E2,6.756302E1,9.871083E1,3.0228859E1,3.7334156E1,4.1727886E1,5.698294E1,1.1844681E1,1.8384178E1,2.1614946E1,1.5719211E1,4.0417595E1,1.3102913E0,8.872858E0,4.8110085E1],"tree_param":{"num_deleted":"0","num_feature":"5","num_nodes":"15","size_leaf_vector":"1"}},{"base_weights":[1.0731622E-2,-5.470421E-1,2.638783E-1,-8.1248355E-1,-2.6974654E-1,1.4454156E-1,8.3352363E-1,-1.0904882E-2,-4.2049047E-2,1.7987957E-2,-1.874329E-2,5.9322687E-3,5.1944423E-2,4.868926E-2,8.896224E-3],"categories":[],"categories_nodes":[],"categories_segments":[],"categories_sizes":[],"default_left":[0,0,0,0,0,0,0,0,0,0,0,0,0,0,0],"id":57,"left_children":[1,3,5,7,9,11,13,-1,-1,-1,-1,-1,-1,-1,-1],"loss_changes":[2.3703465E1,3.638629E0,7.727043E0,2.6174545E-1,1.9301689E0,2.1152697E0,1.6460905E0,0E0,0E0,0E0,0E0,0E0,0E0,0E0,0E0],"parents":[2147483647,0,0,1,1,2,2,3,3,4,4,5,5,6,6],"right_children":[2,4,6,8,10,12,14,-1,-1,-1,-1,-1,-1,-1,-1],"split_conditions":[4.0754285E-2,5.450422E-3,8.60217E-1,4.3E1,6.459951E-3,3E0,2E0,-1.0904882E-2,-4.2049047E-2,1.7987957E-2,-1.874329E-2,5.9322687E-3,5.1944423E-2,4.868926E-2,8.896224E-3],"split_indices":[0,0,0,1,0,2,2,0,0,0,0,0,0,0,0],"split_type":[0,0,0,0,0,0,0,0,0,0,0,0,0,0,0],"sum_hessian":[1.6585097E2,5.1411613E1,1.1443936E2,2.5281162E1,2.6130451E1,9.565421E1,1.8785147E1,1.5525242E0,2.3728638E1,3.3924432E0,2.2738008E1,9.406323E1,1.5909795E0,1.5074673E1,3.7104745E0],"tree_param":{"num_deleted":"0","num_feature":"5","num_nodes":"15","size_leaf_vector":"1"}},{"base_weights":[-3.4477554E-2,-9.724146E-2,1.3519594E-1,-2.4766912E-1,1.5242769E-2,-2.842001E-2,1.9301572E-1,-2.144427E-2,1.2605543E-2,4.667207E-3,-1.1670699E-2,3.3260973E-3,1.9219017E-2],"categories":[],"categories_nodes":[],"categories_segments":[],"categories_sizes":[],"default_left":[0,0,1,1,0,0,0,0,0,0,0,0,0],"id":58,"left_children":[1,3,5,7,9,-1,11,-1,-1,-1,-1,-1,-1],"loss_changes":[1.7479563E0,2.025743E0,1.9162301E0,4.743713E0,1.3678781E0,0E0,9.8578775E-1,0E0,0E0,0E0,0E0,0E0,0E0],"parents":[2147483647,0,0,1,1,2,2,3,3,4,4,6,6],"right_children":[2,4,6,8,10,-1,12,-1,-1,-1,-1,-1,-1],"split_conditions":[2E0,2E0,4.3E1,7.2E1,6.9E1,-2.842001E-2,6.7E1,-2.144427E-2,1.2605543E-2,4.667207E-3,-1.1670699E-2,3.3260973E-3,1.9219017E-2],"split_indices":[2,4,1,1,1,0,1,0,0,0,0,0,0],"split_type":[0,0,0,0,0,0,0,0,0,0,0,0,0],"sum_hessian":[1.6190254E2,1.1849643E2,4.3406113E1,5.0183334E1,6.8313095E1,2.625571E0,4.078054E1,3.693342E1,1.3249915E1,5.2460285E1,1.5852807E1,2.5362988E1,1.5417553E1],"tree_param":{"num_deleted":"0","num_feature":"5","num_nodes":"13","size_leaf_vector":"1"}},{"base_weights":[3.53661E-2,-6.2550914E-1,2.800474E-1,-8.182679E-1,-3.1432214E-1,1.2068382E-1,7.875317E-1,-1.07966E-2,-4.2312667E-2,4.705772E-2,-2.4160475E-2,2.0346516E-3,1.7099295E-2,4.3683704E-2,-3.3700243E-3],"categories":[],"categories_nodes":[],"categories_segments":[],"categories_sizes":[],"default_left":[0,0,0,0,0,1,0,0,0,0,0,0,0,0,0],"id":59,"left_children":[1,3,5,7,9,11,13,-1,-1,-1,-1,-1,-1,-1,-1],"loss_changes":[2.6852297E1,2.435215E0,9.698023E0,2.7396774E-1,4.4394045E0,1.6382687E0,2.176731E0,0E0,0E0,0E0,0E0,0E0,0E0,0E0,0E0],"parents":[2147483647,0,0,1,1,2,2,3,3,4,4,5,5,6,6],"right_children":[2,4,6,8,10,12,14,-1,-1,-1,-1,-1,-1,-1,-1],"split_conditions":[2.330126E-2,6.055036E-3,8.0877405E-1,4.3E1,6.459951E-3,7.2E1,7.8E1,-1.07966E-2,-4.2312667E-2,4.705772E-2,-2.4160475E-2,2.0346516E-3,1.7099295E-2,4.3683704E-2,-3.3700243E-3],"split_indices":[0,0,0,1,0,1,1,0,0,0,0,0,0,0,0],"split_type":[0,0,0,0,0,0,0,0,0,0,0,0,0,0,0],"sum_hessian":[1.6397523E2,4.388555E1,1.2008968E2,2.6093147E1,1.7792402E1,9.2332596E1,2.775709E1,1.5454752E0,2.4547672E1,1.5674677E0,1.6224936E1,6.868862E1,2.364398E1,2.5196394E1,2.5606947E0],"tree_param":{"num_deleted":"0","num_feature":"5","num_nodes":"15","size_leaf_vector":"1"}},{"base_weights":[-2.752786E-2,-4.670319E-1,2.5910974E-1,-7.8157306E-1,-2.3443791E-1,1.6832504E-1,5.3911764E-2,-4.626115E-2,-3.034549E-2,-1.9343866E-2,6.061313E-3,7.0295326E-4,2.1868391E-2],"categories":[],"categories_nodes":[],"categories_segments":[],"categories_sizes":[],"default_left":[0,0,0,0,0,0,0,0,0,0,0,0,0],"id":60,"left_children":[1,3,5,7,9,11,-1,-1,-1,-1,-1,-1,-1],"loss_changes":[2.0671207E1,4.5538187E0,7.2085075E0,1.1834717E-1,2.1424913E0,3.7560318E0,0E0,0E0,0E0,0E0,0E0,0E0,0E0],"parents":[2147483647,0,0,1,1,2,2,3,3,4,4,5,5],"right_children":[2,4,6,8,10,12,-1,-1,-1,-1,-1,-1,-1],"split_conditions":[1.4697139E-1,6.336084E-3,9.0036315E-1,1.2139145E-3,2E0,2E0,5.3911764E-2,-4.626115E-2,-3.034549E-2,-1.9343866E-2,6.061313E-3,7.0295326E-4,2.1868391E-2],"split_indices":[0,0,0,0,2,4,0,0,0,0,0,0,0],"split_type":[0,0,0,0,0,0,0,0,0,0,0,0,0],"sum_hessian":[1.6212479E2,6.3748806E1,9.837598E1,2.6097044E1,3.7651764E1,8.9645905E1,8.730073E0,1.1961912E1,1.4135133E1,2.6294186E1,1.1357577E1,5.7645126E1,3.200078E1],"tree_param":{"num_deleted":"0","num_feature":"5","num_nodes":"13","size_leaf_vector":"1"}},{"base_weights":[8.42312E-3,-3.9362103E-1,3.1015703E-2,-6.0587287E-1,2.0611636E-2,3.565878E-2,1.5079612E-2,-3.596698E-2,-7.500931E-3,-1.284639E-2,2.0594175E-3],"categories":[],"categories_nodes":[],"categories_segments":[],"categories_sizes":[],"default_left":[1,0,0,1,0,0,0,0,0,0,0],"id":61,"left_children":[1,3,5,7,-1,-1,9,-1,-1,-1,-1],"loss_changes":[1.442194E0,1.6949302E0,1.6197001E0,2.5894356E-1,0E0,0E0,1.0586638E0,0E0,0E0,0E0,0E0],"parents":[2147483647,0,0,1,1,2,2,3,3,6,6],"right_children":[2,4,6,8,-1,-1,10,-1,-1,-1,-1],"split_conditions":[4.5E1,2E0,4.6E1,4.3E1,2.0611636E-2,3.565878E-2,5.1E1,-3.596698E-2,-7.500931E-3,-1.284639E-2,2.0594175E-3],"split_indices":[1,4,1,1,0,0,1,0,0,0,0],"split_type":[0,0,0,0,0,0,0,0,0,0,0],"sum_hessian":[1.5643163E2,7.449112E0,1.4898251E2,6.092566E0,1.356546E0,2.4021907E0,1.4658032E2,4.4155E0,1.6770658E0,1.2063112E1,1.3451721E2],"tree_param":{"num_deleted":"0","num_feature":"5","num_nodes":"11","size_leaf_vector":"1"}},{"base_weights":[-1.8374131E-3,-6.651683E-1,2.5167245E-1,-9.266902E-1,-2.6876774E-1,1.943517E-1,9.4629765E-1,-4.807741E-2,-1.641478E-2,4.6336975E-2,-1.9593608E-2,1.0703913E-2,-2.6614893E-2,5.1755697E-2,8.905548E-3],"categories":[],"categories_nodes":[],"categories_segments":[],"categories_sizes":[],"default_left":[0,0,0,1,0,0,0,0,0,0,0,0,0,0,0],"id":62,"left_children":[1,3,5,7,9,11,13,-1,-1,-1,-1,-1,-1,-1,-1],"loss_changes":[2.6905514E1,4.337126E0,4.425381E0,2.3178673E-1,3.158484E0,1.6648865E0,4.000845E-1,0E0,0E0,0E0,0E0,0E0,0E0,0E0,0E0],"parents":[2147483647,0,0,1,1,2,2,3,3,4,4,5,5,6,6],"right_children":[2,4,6,8,10,12,14,-1,-1,-1,-1,-1,-1,-1,-1],"split_conditions":[2.8337233E-2,6.336084E-3,9.0036315E-1,7.3E1,6.6138236E-3,8.4E1,7.4E1,-4.807741E-2,-1.641478E-2,4.6336975E-2,-1.9593608E-2,1.0703913E-2,-2.6614893E-2,5.1755697E-2,8.905548E-3],"split_indices":[0,0,0,1,0,1,1,0,0,0,0,0,0,0,0],"split_type":[0,0,0,0,0,0,0,0,0,0,0,0,0,0,0],"sum_hessian":[1.5800311E2,4.323945E1,1.1476366E2,2.5245909E1,1.7993538E1,1.0719748E2,7.566183E0,2.3282753E1,1.9631566E0,1.0704049E0,1.6923134E1,1.0505102E2,2.1464562E0,6.4705887E0,1.095594E0],"tree_param":{"num_deleted":"0","num_feature":"5","num_nodes":"15","size_leaf_vector":"1"}},{"base_weights":[-3.473234E-2,-6.253434E-1,1.9639127E-1,-8.444401E-1,-3.2618535E-1,1.3814738E-1,9.2685676E-1,-9.8852E-3,-4.3830406E-2,4.389986E-2,-2.2039326E-2,7.90931E-3,-2.729631E-2,5.0724298E-2,1.1161071E-2],"categories":[],"categories_nodes":[],"categories_segments":[],"categories_sizes":[],"default_left":[0,0,0,0,0,0,0,0,0,0,0,0,0,0,0],"id":63,"left_children":[1,3,5,7,9,11,13,-1,-1,-1,-1,-1,-1,-1,-1],"loss_changes":[2.177409E1,2.6642876E0,4.754512E0,3.52211E-1,3.2285106E0,1.5594511E0,2.8529406E-1,0E0,0E0,0E0,0E0,0E0,0E0,0E0,0E0],"parents":[2147483647,0,0,1,1,2,2,3,3,4,4,5,5,6,6],"right_children":[2,4,6,8,10,12,14,-1,-1,-1,-1,-1,-1,-1,-1],"split_conditions":[3.3532895E-2,6.336084E-3,9.0036315E-1,4.3E1,6.6138236E-3,8.4E1,7.4E1,-9.8852E-3,-4.3830406E-2,4.389986E-2,-2.2039326E-2,7.90931E-3,-2.729631E-2,5.0724298E-2,1.1161071E-2],"split_indices":[0,0,0,1,0,1,1,0,0,0,0,0,0,0,0],"split_type":[0,0,0,0,0,0,0,0,0,0,0,0,0,0,0],"sum_hessian":[1.5761258E2,4.3850857E1,1.1376173E2,2.4260374E1,1.959048E1,1.0646207E2,7.2996616E0,1.4881027E0,2.2772272E1,1.1235322E0,1.8466948E1,1.0417907E2,2.2829978E0,6.0984025E0,1.201259E0],"tree_param":{"num_deleted":"0","num_feature":"5","num_nodes":"15","size_leaf_vector":"1"}},{"base_weights":[1.3472151E-2,-4.743723E-1,2.4487965E-1,-8.174388E-1,-2.1251194E-1,1.8159266E-1,9.30434E-1,-6.964595E-3,-4.2731266E-2,2.2013446E-2,-1.5242413E-2,1.0241593E-2,-3.712855E-2,5.0574876E-2,1.3123314E-2],"categories":[],"categories_nodes":[],"categories_segments":[],"categories_sizes":[],"default_left":[0,0,0,0,0,0,0,0,0,0,0,0,0,0,0],"id":64,"left_children":[1,3,5,7,9,11,13,-1,-1,-1,-1,-1,-1,-1,-1],"loss_changes":[1.7829609E1,4.3919897E0,4.477091E0,4.2689896E-1,1.9529667E0,2.284259E0,2.1142626E-1,0E0,0E0,0E0,0E0,0E0,0E0,0E0,0E0],"parents":[2147483647,0,0,1,1,2,2,3,3,4,4,5,5,6,6],"right_children":[2,4,6,8,10,12,14,-1,-1,-1,-1,-1,-1,-1,-1],"split_conditions":[6.1435685E-2,5.450422E-3,9.0036315E-1,4.3E1,6.459951E-3,8.4E1,7.4E1,-6.964595E-3,-4.2731266E-2,2.2013446E-2,-1.5242413E-2,1.0241593E-2,-3.712855E-2,5.0574876E-2,1.3123314E-2],"split_indices":[0,0,0,1,0,1,1,0,0,0,0,0,0,0,0],"split_type":[0,0,0,0,0,0,0,0,0,0,0,0,0,0,0],"sum_hessian":[1.559077E2,4.982294E1,1.06084755E2,2.06489E1,2.917404E1,9.8277176E1,7.807579E0,1.3201394E0,1.932876E1,3.1483507E0,2.602569E1,9.662577E1,1.651409E0,6.5039763E0,1.303603E0],"tree_param":{"num_deleted":"0","num_feature":"5","num_nodes":"15","size_leaf_vector":"1"}},{"base_weights":[3.171798E-2,-7.796156E-1,1.6662943E-1,-4.56226E-2,-5.952952E-1,7.215442E-2,8.0245745E-1,1.9386379E-2,-3.663478E-2,-2.871624E-3,1.2346021E-2,4.4722363E-2,1.8015722E-2],"categories":[],"categories_nodes":[],"categories_segments":[],"categories_sizes":[],"default_left":[0,0,0,0,0,0,0,0,0,0,0,0,0],"id":65,"left_children":[1,3,5,-1,7,9,11,-1,-1,-1,-1,-1,-1],"loss_changes":[1.7231495E1,6.545067E-3,8.038714E0,0E0,1.942801E0,2.6967387E0,3.828888E-1,0E0,0E0,0E0,0E0,0E0,0E0],"parents":[2147483647,0,0,1,1,2,2,4,4,5,5,6,6],"right_children":[2,4,6,-1,8,10,12,-1,-1,-1,-1,-1,-1],"split_conditions":[6.055036E-3,1.2139145E-3,8.60217E-1,-4.56226E-2,1.4504145E-3,5.2479464E-1,2E0,1.9386379E-2,-3.663478E-2,-2.871624E-3,1.2346021E-2,4.4722363E-2,1.8015722E-2],"split_indices":[0,0,0,0,0,0,2,0,0,0,0,0,0],"split_type":[0,0,0,0,0,0,0,0,0,0,0,0,0],"sum_hessian":[1.5523854E2,2.14519E1,1.3378664E2,1.0171283E1,1.1280618E1,1.1744888E2,1.6337757E1,1.1599493E0,1.0120668E1,6.78272E1,4.962168E1,1.2677223E1,3.660534E0],"tree_param":{"num_deleted":"0","num_feature":"5","num_nodes":"13","size_leaf_vector":"1"}},{"base_weights":[1.406479E-2,-3.7337974E-1,2.5459772E-1,-7.539214E-1,-1.7600597E-1,5.1411676E-1,9.351872E-2,-4.540583E-2,-2.6259212E-2,2.1172626E-2,-1.1915936E-2,5.932084E-3,4.1419625E-2,-2.6067598E-2,6.835555E-3],"categories":[],"categories_nodes":[],"categories_segments":[],"categories_sizes":[],"default_left":[0,0,0,0,0,0,0,0,0,0,0,0,0,0,0],"id":66,"left_children":[1,3,5,7,9,11,13,-1,-1,-1,-1,-1,-1,-1,-1],"loss_changes":[1.4569792E1,4.3661203E0,3.9826746E0,2.3383427E-1,1.6229104E0,4.4637375E0,1.6837885E0,0E0,0E0,0E0,0E0,0E0,0E0,0E0,0E0],"parents":[2147483647,0,0,1,1,2,2,3,3,4,4,5,5,6,6],"right_children":[2,4,6,8,10,12,14,-1,-1,-1,-1,-1,-1,-1,-1],"split_conditions":[1.4697139E-1,5.450422E-3,0E0,1.2139145E-3,6.459951E-3,7.12188E-1,1E0,-4.540583E-2,-2.6259212E-2,2.1172626E-2,-1.1915936E-2,5.932084E-3,4.1419625E-2,-2.6067598E-2,6.835555E-3],"split_indices":[0,0,2,0,0,0,2,0,0,0,0,0,0,0,0],"split_type":[0,0,0,0,0,0,0,0,0,0,0,0,0,0,0],"sum_hessian":[1.5431967E2,5.88972E1,9.542246E1,1.9151962E1,3.974524E1,3.570515E1,5.971731E1,9.6659E0,9.486062E0,3.1967163E0,3.6548523E1,1.6420101E1,1.928505E1,3.1929667E0,5.6524345E1],"tree_param":{"num_deleted":"0","num_feature":"5","num_nodes":"15","size_leaf_vector":"1"}},{"base_weights":[-1.3438029E-2,-5.066202E-1,1.7252184E-1,-7.4467033E-1,-2.9050606E-1,4.997211E-2,5.4742265E-1,-4.8722415E-3,-3.9120693E-2,1.8214697E-2,-2.0845076E-2,-4.2946912E-2,4.4078273E-3,4.308126E-2,3.7369702E-3],"categories":[],"categories_nodes":[],"categories_segments":[],"categories_sizes":[],"default_left":[0,0,0,0,0,1,0,0,0,0,0,0,0,0,0],"id":67,"left_children":[1,3,5,7,9,11,13,-1,-1,-1,-1,-1,-1,-1,-1],"loss_changes":[1.413139E1,1.9538555E0,5.1159573E0,3.9848995E-1,2.1175356E0,3.0420275E0,4.01665E0,0E0,0E0,0E0,0E0,0E0,0E0,0E0,0E0],"parents":[2147483647,0,0,1,1,2,2,3,3,4,4,5,5,6,6],"right_children":[2,4,6,8,10,12,14,-1,-1,-1,-1,-1,-1,-1,-1],"split_conditions":[3.6810927E-2,5.450422E-3,8.0877405E-1,4.3E1,6.459951E-3,4.5E1,6.7E1,-4.8722415E-3,-3.9120693E-2,1.8214697E-2,-2.0845076E-2,-4.2946912E-2,4.4078273E-3,4.308126E-2,3.7369702E-3],"split_indices":[0,0,0,1,0,1,1,0,0,0,0,0,0,0,0],"split_type":[0,0,0,0,0,0,0,0,0,0,0,0,0,0,0],"sum_hessian":[1.5213123E2,4.118379E1,1.1094743E2,1.8433516E1,2.2750273E1,8.446901E1,2.6478424E1,1.213097E0,1.7220419E1,3.376405E0,1.9373869E1,2.5389721E0,8.193004E1,1.5411342E1,1.1067081E1],"tree_param":{"num_deleted":"0","num_feature":"5","num_nodes":"15","size_leaf_vector":"1"}},{"base_weights":[5.8175184E-2,-3.616485E-1,3.090015E-1,-7.364146E-1,-1.7344101E-1,2.4389955E-1,5.0600648E-2,-4.201325E-3,-3.8764514E-2,-4.1742053E-2,-2.812741E-3,7.870062E-3,1.9336097E-2],"categories":[],"categories_nodes":[],"categories_segments":[],"categories_sizes":[],"default_left":[0,0,0,0,1,0,0,0,0,0,0,0,0],"id":68,"left_children":[1,3,5,7,9,11,-1,-1,-1,-1,-1,-1,-1],"loss_changes":[1.6103798E1,3.9110265E0,4.128875E0,4.1253376E-1,3.0087771E0,1.0364232E0,0E0,0E0,0E0,0E0,0E0,0E0,0E0],"parents":[2147483647,0,0,1,1,2,2,3,3,4,4,5,5],"right_children":[2,4,6,8,10,12,-1,-1,-1,-1,-1,-1,-1],"split_conditions":[1.4697139E-1,5.450422E-3,9.0036315E-1,4.3E1,5.1E1,2E0,5.0600648E-2,-4.201325E-3,-3.8764514E-2,-4.1742053E-2,-2.812741E-3,7.870062E-3,1.9336097E-2],"split_indices":[0,0,0,1,1,4,0,0,0,0,0,0,0],"split_type":[0,0,0,0,0,0,0,0,0,0,0,0,0],"sum_hessian":[1.508672E2,5.625981E1,9.460739E1,1.7834427E1,3.8425385E1,8.7821655E1,6.7857366E0,1.1807754E0,1.6653652E1,4.8617215E0,3.3563663E1,5.600507E1,3.1816582E1],"tree_param":{"num_deleted":"0","num_feature":"5","num_nodes":"13","size_leaf_vector":"1"}},{"base_weights":[3.246556E-2,-5.827833E-1,2.1942243E-1,-4.6397794E-2,-3.5479766E-1,1.7554082E-1,4.2525783E-2,2.4750588E-2,-2.0797163E-2,7.6264716E-3,5.1574983E-2],"categories":[],"categories_nodes":[],"categories_segments":[],"categories_sizes":[],"default_left":[0,0,0,0,0,0,0,0,0,0,0],"id":69,"left_children":[1,3,5,-1,7,9,-1,-1,-1,-1,-1],"loss_changes":[1.7575401E1,2.474186E0,3.0925016E0,0E0,1.4048152E0,2.0233016E0,0E0,0E0,0E0,0E0,0E0],"parents":[2147483647,0,0,1,1,2,2,4,4,5,5],"right_children":[2,4,6,-1,8,10,-1,-1,-1,-1,-1],"split_conditions":[2.330126E-2,2.4275132E-3,9.0036315E-1,-4.6397794E-2,2.9233622E-3,3E0,4.2525783E-2,2.4750588E-2,-2.0797163E-2,7.6264716E-3,5.1574983E-2],"split_indices":[0,0,0,0,0,2,0,0,0,0,0],"split_type":[0,0,0,0,0,0,0,0,0,0,0],"sum_hessian":[1.5068465E2,3.4624165E1,1.1606048E2,1.2551232E1,2.2072933E1,1.0971019E2,6.3502913E0,1.0053148E0,2.1067617E1,1.0798534E2,1.7248535E0],"tree_param":{"num_deleted":"0","num_feature":"5","num_nodes":"11","size_leaf_vector":"1"}},{"base_weights":[2.2839105E-3,-5.470277E-2,1.4427577E-1,-1.0529734E-1,1.2689438E-1,2.2333056E-1,-2.7557388E-1,1.4106671E-3,-1.7787803E-2,3.402485E-2,-8.7158615E-4,5.3623007E-3,2.7855778E-2,-2.7480254E-2,4.5543727E-3],"categories":[],"categories_nodes":[],"categories_segments":[],"categories_sizes":[],"default_left":[0,1,0,0,0,0,1,0,0,0,0,0,0,0,0],"id":70,"left_children":[1,3,5,7,9,11,13,-1,-1,-1,-1,-1,-1,-1,-1],"loss_changes":[1.2476809E0,1.0245955E0,1.5271331E0,2.9067245E0,1.964287E0,1.4014735E0,7.980574E-1,0E0,0E0,0E0,0E0,0E0,0E0,0E0,0E0],"parents":[2147483647,0,0,1,1,2,2,3,3,4,4,5,5,6,6],"right_children":[2,4,6,8,10,12,14,-1,-1,-1,-1,-1,-1,-1,-1],"split_conditions":[2E0,7.2E1,7.6E1,1E0,7.3E1,6.7E1,8E1,1.4106671E-3,-1.7787803E-2,3.402485E-2,-8.7158615E-4,5.3623007E-3,2.7855778E-2,-2.7480254E-2,4.5543727E-3],"split_indices":[2,1,1,2,1,1,1,0,0,0,0,0,0,0,0],"split_type":[0,0,0,0,0,0,0,0,0,0,0,0,0,0,0],"sum_hessian":[1.5221837E2,1.0906231E2,4.315606E1,8.5626236E1,2.3436068E1,3.6711594E1,6.444469E0,5.6431797E1,2.9194443E1,4.078161E0,1.9357906E1,2.8218868E1,8.492723E0,3.4025586E0,3.0419104E0],"tree_param":{"num_deleted":"0","num_feature":"5","num_nodes":"15","size_leaf_vector":"1"}},{"base_weights":[-1.749379E-2,-2.697949E-1,5.896183E-2,-6.648406E-2,-3.9776957E-1,4.343974E-1,3.0374466E-2,5.3393166E-3,-2.1052565E-2,-4.003207E-2,-7.919527E-3,2.8457869E-2,1.0989626E-2,8.161378E-4,3.6968447E-2],"categories":[],"categories_nodes":[],"categories_segments":[],"categories_sizes":[],"default_left":[1,0,0,0,0,0,0,0,0,0,0,0,0,0,0],"id":71,"left_children":[1,3,5,7,9,11,13,-1,-1,-1,-1,-1,-1,-1,-1],"loss_changes":[2.9306743E0,8.9253306E-1,1.2402117E0,9.5696187E-1,1.9442446E0,1.1170328E-1,1.0797875E0,0E0,0E0,0E0,0E0,0E0,0E0,0E0,0E0],"parents":[2147483647,0,0,1,1,2,2,3,3,4,4,5,5,6,6],"right_children":[2,4,6,8,10,12,14,-1,-1,-1,-1,-1,-1,-1,-1],"split_conditions":[5.5E1,1E0,5.7E1,5.3E1,2E0,0E0,3E0,5.3393166E-3,-2.1052565E-2,-4.003207E-2,-7.919527E-3,2.8457869E-2,1.0989626E-2,8.161378E-4,3.6968447E-2],"split_indices":[1,2,1,1,2,2,2,0,0,0,0,0,0,0,0],"split_type":[0,0,0,0,0,0,0,0,0,0,0,0,0,0,0],"sum_hessian":[1.5010374E2,3.432001E1,1.1578373E2,1.3844705E1,2.0475306E1,7.1880608E0,1.08595665E2,9.769405E0,4.0752997E0,6.757634E0,1.3717671E1,3.4005725E0,3.7874882E0,1.0748836E2,1.1073118E0],"tree_param":{"num_deleted":"0","num_feature":"5","num_nodes":"15","size_leaf_vector":"1"}},{"base_weights":[6.1732037E-3,-5.862713E-1,1.426371E-1,-7.3744917E-1,-2.693016E-1,3.3671543E-2,5.5125177E-1,-4.4640582E-2,-2.675643E-2,2.2864526E-2,-2.2857586E-2,-3.872043E-3,1.415837E-2,3.3595964E-2,6.0641035E-3],"categories":[],"categories_nodes":[],"categories_segments":[],"categories_sizes":[],"default_left":[0,0,0,0,0,0,0,0,0,0,0,0,0,0,0],"id":72,"left_children":[1,3,5,7,9,11,13,-1,-1,-1,-1,-1,-1,-1,-1],"loss_changes":[1.2420969E1,1.1797924E0,5.539731E0,1.1633968E-1,1.6919236E0,2.783578E0,1.2787042E0,0E0,0E0,0E0,0E0,0E0,0E0,0E0,0E0],"parents":[2147483647,0,0,1,1,2,2,3,3,4,4,5,5,6,6],"right_children":[2,4,6,8,10,12,14,-1,-1,-1,-1,-1,-1,-1,-1],"split_conditions":[1.2700471E-2,6.055036E-3,8.0877405E-1,1.2139145E-3,6.459951E-3,2E0,2E0,-4.4640582E-2,-2.675643E-2,2.2864526E-2,-2.2857586E-2,-3.872043E-3,1.415837E-2,3.3595964E-2,6.0641035E-3],"split_indices":[0,0,0,0,0,2,2,0,0,0,0,0,0,0,0],"split_type":[0,0,0,0,0,0,0,0,0,0,0,0,0,0,0],"sum_hessian":[1.5160062E2,2.7765087E1,1.2383553E2,1.790079E1,9.864298E0,9.861911E1,2.5216425E1,8.194986E0,9.705804E0,1.7317321E0,8.1325655E0,6.870922E1,2.9909883E1,1.9251059E1,5.965367E0],"tree_param":{"num_deleted":"0","num_feature":"5","num_nodes":"15","size_leaf_vector":"1"}},{"base_weights":[-2.3236241E-2,-7.6383615E-1,7.137325E-2,-8.1105435E-1,-1.8793643E-3,2.7562508E-2,8.4365803E-1,-3.0482383E-3,-4.3237664E-2,-6.0823774E-3,7.88534E-3,4.7370624E-2,9.994826E-3],"categories":[],"categories_nodes":[],"categories_segments":[],"categories_sizes":[],"default_left":[0,1,0,0,0,0,0,0,0,0,0,0,0],"id":73,"left_children":[1,3,5,7,-1,9,11,-1,-1,-1,-1,-1,-1],"loss_changes":[1.040404E1,5.4621315E-1,4.439165E0,5.813494E-1,0E0,2.4629202E0,2.8127575E-1,0E0,0E0,0E0,0E0,0E0,0E0],"parents":[2147483647,0,0,1,1,2,2,3,3,5,5,6,6],"right_children":[2,4,6,8,-1,10,12,-1,-1,-1,-1,-1,-1],"split_conditions":[5.450422E-3,7.3E1,9.0036315E-1,4.3E1,-1.8793643E-3,3.598594E-1,7.2E1,-3.0482383E-3,-4.3237664E-2,-6.0823774E-3,7.88534E-3,4.7370624E-2,9.994826E-3],"split_indices":[0,1,0,1,0,0,1,0,0,0,0,0,0],"split_type":[0,0,0,0,0,0,0,0,0,0,0,0,0],"sum_hessian":[1.4670732E2,1.5817205E1,1.3089012E2,1.47419615E1,1.0752441E0,1.2484359E2,6.04653E0,1.1275238E0,1.3614438E1,5.8191956E1,6.6651634E1,4.8010635E0,1.245466E0],"tree_param":{"num_deleted":"0","num_feature":"5","num_nodes":"13","size_leaf_vector":"1"}},{"base_weights":[-2.2864237E-2,-2.9959428E-1,3.5845593E-1,-6.113445E-1,-9.9067986E-2,6.2082994E-1,1.5998085E-1,-4.412463E-2,-2.494734E-2,1.0527814E-2,-8.643815E-3,3.2407944E-3,4.3327656E-2,5.12517E-3,3.9249867E-2],"categories":[],"categories_nodes":[],"categories_segments":[],"categories_sizes":[],"default_left":[0,0,0,0,0,0,0,0,0,0,0,0,0,0,0],"id":74,"left_children":[1,3,5,7,9,11,13,-1,-1,-1,-1,-1,-1,-1,-1],"loss_changes":[1.5510461E1,5.261227E0,3.1209655E0,5.6936264E-1,1.2475927E0,3.5351086E0,1.2327212E0,0E0,0E0,0E0,0E0,0E0,0E0,0E0,0E0],"parents":[2147483647,0,0,1,1,2,2,3,3,4,4,5,5,6,6],"right_children":[2,4,6,8,10,12,14,-1,-1,-1,-1,-1,-1,-1,-1],"split_conditions":[5.2479464E-1,2.330126E-2,0E0,1.2139145E-3,5.347218E-2,7.12188E-1,9.0036315E-1,-4.412463E-2,-2.494734E-2,1.0527814E-2,-8.643815E-3,3.2407944E-3,4.3327656E-2,5.12517E-3,3.9249867E-2],"split_indices":[0,0,2,0,0,0,0,0,0,0,0,0,0,0,0],"split_type":[0,0,0,0,0,0,0,0,0,0,0,0,0,0,0],"sum_hessian":[1.449692E2,8.4129456E1,6.0839745E1,3.2129814E1,5.1999638E1,2.5285542E1,3.5554203E1,7.40778E0,2.4722034E1,9.652956E0,4.234668E1,8.137056E0,1.7148483E1,3.3625916E1,1.928288E0],"tree_param":{"num_deleted":"0","num_feature":"5","num_nodes":"15","size_leaf_vector":"1"}},{"base_weights":[-9.777495E-2,-3.9810157E-1,1.1659283E-1,-7.2841984E-1,-2.4836142E-1,1.0520762E-2,5.889266E-1,-3.8660194E-3,-3.8413137E-2,4.3232128E-2,-1.4967459E-2,-1.6777326E-3,2.0597614E-2,5.0343763E-2,1.3342581E-2],"categories":[],"categories_nodes":[],"categories_segments":[],"categories_sizes":[],"default_left":[0,0,0,0,0,0,0,0,0,0,0,0,0,0,0],"id":75,"left_children":[1,3,5,7,9,11,13,-1,-1,-1,-1,-1,-1,-1,-1],"loss_changes":[9.317365E0,2.7968435E0,4.242393E0,4.1432476E-1,2.6957595E0,1.2570714E0,1.8222218E0,0E0,0E0,0E0,0E0,0E0,0E0,0E0,0E0],"parents":[2147483647,0,0,1,1,2,2,3,3,4,4,5,5,6,6],"right_children":[2,4,6,8,10,12,14,-1,-1,-1,-1,-1,-1,-1,-1],"split_conditions":[2.1009493E-1,6.336084E-3,8.60217E-1,4.3E1,6.6138236E-3,7.9E1,6.1E1,-3.8660194E-3,-3.8413137E-2,4.3232128E-2,-1.4967459E-2,-1.6777326E-3,2.0597614E-2,5.0343763E-2,1.3342581E-2],"split_indices":[0,0,0,1,0,1,1,0,0,0,0,0,0,0,0],"split_type":[0,0,0,0,0,0,0,0,0,0,0,0,0,0,0],"sum_hessian":[1.4300278E2,5.9203007E1,8.3799774E1,1.7261206E1,4.1941803E1,6.926679E1,1.4532982E1,1.1649303E0,1.6096275E1,1.1382074E0,4.0803593E1,6.3239758E1,6.0270343E0,5.3997045E0,9.133277E0],"tree_param":{"num_deleted":"0","num_feature":"5","num_nodes":"15","size_leaf_vector":"1"}},{"base_weights":[3.1785356E-4,-7.0685947E-1,1.1479385E-1,-5.688609E-3,-7.399687E-1,7.3241964E-2,8.179337E-1,-3.855014E-2,-1.3775425E-2,-9.174972E-3,5.9200493E-3,4.5914788E-2,9.892288E-3],"categories":[],"categories_nodes":[],"categories_segments":[],"categories_sizes":[],"default_left":[0,0,0,0,1,0,0,0,0,0,0,0,0],"id":76,"left_children":[1,3,5,-1,7,9,11,-1,-1,-1,-1,-1,-1],"loss_changes":[1.1776775E1,3.138075E-1,3.598125E0,0E0,6.166172E-2,1.4050922E0,2.4696064E-1,0E0,0E0,0E0,0E0,0E0,0E0],"parents":[2147483647,0,0,1,1,2,2,4,4,5,5,6,6],"right_children":[2,4,6,-1,8,10,12,-1,-1,-1,-1,-1,-1],"split_conditions":[7.4408366E-3,4.3E1,9.0036315E-1,-5.688609E-3,7.3E1,4.0754285E-2,7.3E1,-3.855014E-2,-1.3775425E-2,-9.174972E-3,5.9200493E-3,4.5914788E-2,9.892288E-3],"split_indices":[0,1,0,0,1,0,1,0,0,0,0,0,0],"split_type":[0,0,0,0,0,0,0,0,0,0,0,0,0],"sum_hessian":[1.4347108E2,1.9267996E1,1.24203094E2,1.2533295E0,1.8014668E1,1.1831543E2,5.887659E0,1.6267704E1,1.7469633E0,1.7239687E1,1.01075745E2,4.6535616E0,1.2340971E0],"tree_param":{"num_deleted":"0","num_feature":"5","num_nodes":"13","size_leaf_vector":"1"}},{"base_weights":[1.0018268E-1,-4.4848138E-1,2.488555E-1,-8.1968874E-1,-2.2854567E-1,2.060468E-1,4.713566E-2,-2.7922224E-3,-4.501247E-2,-3.8134013E-3,-3.878076E-2,5.7296767E-3,2.0590102E-2],"categories":[],"categories_nodes":[],"categories_segments":[],"categories_sizes":[],"default_left":[0,0,0,0,0,0,0,0,0,0,0,0,0],"id":77,"left_children":[1,3,5,7,9,11,-1,-1,-1,-1,-1,-1,-1],"loss_changes":[1.1692876E1,2.3130636E0,3.1429205E0,6.2711287E-1,1.6584972E0,1.9681354E0,0E0,0E0,0E0,0E0,0E0,0E0,0E0],"parents":[2147483647,0,0,1,1,2,2,3,3,4,4,5,5],"right_children":[2,4,6,8,10,12,-1,-1,-1,-1,-1,-1,-1],"split_conditions":[2.330126E-2,2.4275132E-3,9.0036315E-1,4.5E1,1.532059E-2,2E0,4.713566E-2,-2.7922224E-3,-4.501247E-2,-3.8134013E-3,-3.878076E-2,5.7296767E-3,2.0590102E-2],"split_indices":[0,0,0,1,0,2,0,0,0,0,0,0,0],"split_type":[0,0,0,0,0,0,0,0,0,0,0,0,0],"sum_hessian":[1.4097702E2,2.9626488E1,1.11350525E2,1.0008016E1,1.9618473E1,1.0610139E2,5.249143E0,1.1163564E0,8.891659E0,1.6238008E1,3.380463E0,7.453106E1,3.157033E1],"tree_param":{"num_deleted":"0","num_feature":"5","num_nodes":"13","size_leaf_vector":"1"}},{"base_weights":[-1.7304016E-2,-2.4224174E-1,4.882262E-2,2.7369816E-2,-4.4259006E-1,2.7030358E-2,1.1245465E-2,-1.5623355E-2,1.5675997E-2,-1.7156666E-3,-4.116076E-2,-7.189104E-3,6.5813847E-3],"categories":[],"categories_nodes":[],"categories_segments":[],"categories_sizes":[],"default_left":[1,0,0,0,0,0,0,0,0,0,0,0,0],"id":78,"left_children":[1,3,5,7,9,-1,11,-1,-1,-1,-1,-1,-1],"loss_changes":[2.1142542E0,1.7557523E0,2.0279198E0,1.5277478E0,2.8586123E0,0E0,1.9462798E0,0E0,0E0,0E0,0E0,0E0,0E0],"parents":[2147483647,0,0,1,1,2,2,3,3,4,4,6,6],"right_children":[2,4,6,8,10,-1,12,-1,-1,-1,-1,-1,-1],"split_conditions":[5.5E1,4.9E1,5.7E1,4.5E1,0E0,2.7030358E-2,1E0,-1.5623355E-2,1.5675997E-2,-1.7156666E-3,-4.116076E-2,-7.189104E-3,6.5813847E-3],"split_indices":[1,1,1,1,2,0,2,0,0,0,0,0,0],"split_type":[0,0,0,0,0,0,0,0,0,0,0,0,0],"sum_hessian":[1.4034558E2,3.1279907E1,1.0906568E2,1.370299E1,1.7576918E1,6.7918544E0,1.0227383E2,6.2218466E0,7.481143E0,9.006386E0,8.570532E0,4.4619152E1,5.765467E1],"tree_param":{"num_deleted":"0","num_feature":"5","num_nodes":"13","size_leaf_vector":"1"}},{"base_weights":[-3.6381297E-2,-8.415071E-2,8.2418524E-2,-1.504471E-1,1.4803097E-1,-2.6475677E-2,1.3014035E-1,-2.0132184E-3,-1.2914545E-2,1.0992787E-2,-3.566557E-2,9.2265485E-3,-6.9340183E-3],"categories":[],"categories_nodes":[],"categories_segments":[],"categories_sizes":[],"default_left":[0,1,1,0,0,0,0,0,0,0,0,0,0],"id":79,"left_children":[1,3,5,7,9,-1,11,-1,-1,-1,-1,-1,-1],"loss_changes":[8.20398E-1,1.6035464E0,1.284123E0,9.4503427E-1,1.5996264E0,0E0,6.0175186E-1,0E0,0E0,0E0,0E0,0E0,0E0],"parents":[2147483647,0,0,1,1,2,2,3,3,4,4,6,6],"right_children":[2,4,6,8,10,-1,12,-1,-1,-1,-1,-1,-1],"split_conditions":[2E0,7.2E1,4.3E1,6.2E1,8.4E1,-2.6475677E-2,7.6E1,-2.0132184E-3,-1.2914545E-2,1.0992787E-2,-3.566557E-2,9.2265485E-3,-6.9340183E-3],"split_indices":[2,1,1,1,1,0,1,0,0,0,0,0,0],"split_type":[0,0,0,0,0,0,0,0,0,0,0,0,0],"sum_hessian":[1.4234146E2,1.017282E2,4.061326E1,7.94067E1,2.23215E1,2.207744E0,3.8405514E1,3.995673E1,3.9449974E1,2.129087E1,1.0306295E0,3.2203346E1,6.2021666E0],"tree_param":{"num_deleted":"0","num_feature":"5","num_nodes":"13","size_leaf_vector":"1"}},{"base_weights":[8.816109E-3,-4.147237E-2,1.302561E-1,-3.7088117E-1,-1.7068736E-2,3.80543E-1,6.311572E-2,4.442511E-3,-4.2777594E-2,2.0731239E-2,-2.845118E-3,-9.603212E-3,2.9870903E-2,-3.5874367E-2,6.048407E-3],"categories":[],"categories_nodes":[],"categories_segments":[],"categories_sizes":[],"default_left":[0,1,0,0,0,0,1,0,0,0,0,0,0,0,0],"id":80,"left_children":[1,3,5,7,9,11,13,-1,-1,-1,-1,-1,-1,-1,-1],"loss_changes":[8.811691E-1,8.1497324E-1,6.857177E-1,1.635436E0,1.6773106E0,1.199432E0,1.6448381E0,0E0,0E0,0E0,0E0,0E0,0E0,0E0,0E0],"parents":[2147483647,0,0,1,1,2,2,3,3,4,4,5,5,6,6],"right_children":[2,4,6,8,10,12,14,-1,-1,-1,-1,-1,-1,-1,-1],"split_conditions":[2E0,5E1,4.9E1,1E0,5.3E1,4.3E1,5.2E1,4.442511E-3,-4.2777594E-2,2.0731239E-2,-2.845118E-3,-9.603212E-3,2.9870903E-2,-3.5874367E-2,6.048407E-3],"split_indices":[2,1,1,2,1,1,1,0,0,0,0,0,0,0,0],"split_type":[0,0,0,0,0,0,0,0,0,0,0,0,0,0,0],"sum_hessian":[1.4240306E2,1.0116781E2,4.1235245E1,5.9986153E0,9.51692E1,7.734518E0,3.350073E1,3.497635E0,2.5009804E0,7.2448487E0,8.792435E1,2.156141E0,5.5783772E0,1.5247834E0,3.1975945E1],"tree_param":{"num_deleted":"0","num_feature":"5","num_nodes":"15","size_leaf_vector":"1"}},{"base_weights":[3.5002682E-2,-5.6217414E-1,1.3207325E-1,-4.33073E-2,-3.6149785E-1,-3.8266294E-2,2.9450655E-1,2.4132444E-2,-2.325247E-2,3.7651982E-2,-3.365588E-3,1.1684546E-2,3.9834827E-2],"categories":[],"categories_nodes":[],"categories_segments":[],"categories_sizes":[],"default_left":[0,0,0,0,0,0,0,0,0,0,0,0,0],"id":81,"left_children":[1,3,5,-1,7,9,11,-1,-1,-1,-1,-1,-1],"loss_changes":[8.461757E0,9.3258E-1,3.4773464E0,0E0,1.449711E0,1.4764211E0,1.7757177E0,0E0,0E0,0E0,0E0,0E0,0E0],"parents":[2147483647,0,0,1,1,2,2,4,4,5,5,6,6],"right_children":[2,4,6,-1,8,10,12,-1,-1,-1,-1,-1,-1],"split_conditions":[8.518094E-3,1.2139145E-3,5.2479464E-1,-4.33073E-2,1.5180716E-3,9.582991E-3,9.0036315E-1,2.4132444E-2,-2.325247E-2,3.7651982E-2,-3.365588E-3,1.1684546E-2,3.9834827E-2],"split_indices":[0,0,0,0,0,0,0,0,0,0,0,0,0],"split_type":[0,0,0,0,0,0,0,0,0,0,0,0,0],"sum_hessian":[1.436913E2,1.9421165E1,1.24270134E2,6.4042587E0,1.3016907E1,6.1031944E1,6.3238186E1,1.0222908E0,1.1994616E1,1.2783632E0,5.9753582E1,5.771428E1,5.523905E0],"tree_param":{"num_deleted":"0","num_feature":"5","num_nodes":"13","size_leaf_vector":"1"}},{"base_weights":[4.4696935E-2,-6.4375806E-1,1.18558355E-1,-4.293349E-2,-3.7345743E-1,8.427662E-2,7.755755E-1,2.3126822E-2,-2.8368447E-2,3.2448608E-3,4.0154893E-2,4.467478E-2,4.3040323E-3],"categories":[],"categories_nodes":[],"categories_segments":[],"categories_sizes":[],"default_left":[0,0,0,0,0,0,0,0,0,0,0,0,0],"id":82,"left_children":[1,3,5,-1,7,9,11,-1,-1,-1,-1,-1,-1],"loss_changes":[7.332419E0,4.9151278E-1,2.8562746E0,0E0,1.5531965E0,1.6808589E0,4.3617606E-1,0E0,0E0,0E0,0E0,0E0,0E0],"parents":[2147483647,0,0,1,1,2,2,4,4,5,5,6,6],"right_children":[2,4,6,-1,8,10,12,-1,-1,-1,-1,-1,-1],"split_conditions":[5.450422E-3,1.2139145E-3,9.0036315E-1,-4.293349E-2,1.5180716E-3,3E0,7.3E1,2.3126822E-2,-2.8368447E-2,3.2448608E-3,4.0154893E-2,4.467478E-2,4.3040323E-3],"split_indices":[0,0,0,0,0,2,1,0,0,0,0,0,0],"split_type":[0,0,0,0,0,0,0,0,0,0,0,0,0],"sum_hessian":[1.4169534E2,1.2981384E1,1.2871396E2,6.0190287E0,6.9623556E0,1.2340331E2,5.310648E0,1.0500534E0,5.9123025E0,1.21225365E2,2.1779485E0,4.2823877E0,1.02826E0],"tree_param":{"num_deleted":"0","num_feature":"5","num_nodes":"13","size_leaf_vector":"1"}},{"base_weights":[-5.5619135E-2,-1.2600116E-1,6.234533E-1,-4.861047E-1,-2.0441923E-2,4.3273147E-2,1.782544E-1,-4.279683E-2,-1.7739061E-2,4.1000592E-4,-5.0565284E-2,4.3880325E-2,-2.9735213E-2],"categories":[],"categories_nodes":[],"categories_segments":[],"categories_sizes":[],"default_left":[0,0,0,0,0,0,0,0,0,0,0,0,0],"id":83,"left_children":[1,3,5,7,9,-1,11,-1,-1,-1,-1,-1,-1],"loss_changes":[6.791164E0,4.8590393E0,1.2849154E0,1.104413E0,2.8490934E0,0E0,3.7455916E0,0E0,0E0,0E0,0E0,0E0,0E0],"parents":[2147483647,0,0,1,1,2,2,3,3,4,4,6,6],"right_children":[2,4,6,8,10,-1,12,-1,-1,-1,-1,-1,-1],"split_conditions":[8.60217E-1,2.330126E-2,0E0,1.2139145E-3,8.4E1,4.3273147E-2,6.1E1,-4.279683E-2,-1.7739061E-2,4.1000592E-4,-5.0565284E-2,4.3880325E-2,-2.9735213E-2],"split_indices":[0,0,2,0,1,0,1,0,0,0,0,0,0],"split_type":[0,0,0,0,0,0,0,0,0,0,0,0,0],"sum_hessian":[1.3944731E2,1.2708964E2,1.2357672E1,2.7992231E1,9.9097404E1,7.3942013E0,4.9634705E0,5.8892384E0,2.2102993E1,9.727722E1,1.8201841E0,2.5347297E0,2.428741E0],"tree_param":{"num_deleted":"0","num_feature":"5","num_nodes":"13","size_leaf_vector":"1"}},{"base_weights":[5.2604288E-2,-6.109506E-1,1.3253795E-1,-4.2484786E-2,-3.8621116E-1,1.0192245E-1,7.512017E-1,2.3710568E-2,-2.7144535E-2,4.2868857E-3,3.6577415E-2,4.3236665E-2,8.024501E-3],"categories":[],"categories_nodes":[],"categories_segments":[],"categories_sizes":[],"default_left":[0,0,0,0,0,0,0,0,0,0,0,0,0],"id":84,"left_children":[1,3,5,-1,7,9,11,-1,-1,-1,-1,-1,-1],"loss_changes":[7.563593E0,4.9520063E-1,2.3237648E0,0E0,1.5702055E0,1.179582E0,2.5144482E-1,0E0,0E0,0E0,0E0,0E0,0E0],"parents":[2147483647,0,0,1,1,2,2,4,4,5,5,6,6],"right_children":[2,4,6,-1,8,10,12,-1,-1,-1,-1,-1,-1],"split_conditions":[6.336084E-3,1.2139145E-3,9.0036315E-1,-4.2484786E-2,1.5180716E-3,3E0,7.2E1,2.3710568E-2,-2.7144535E-2,4.2868857E-3,3.6577415E-2,4.3236665E-2,8.024501E-3],"split_indices":[0,0,0,0,0,2,1,0,0,0,0,0,0],"split_type":[0,0,0,0,0,0,0,0,0,0,0,0,0],"sum_hessian":[1.4007404E2,1.4345364E1,1.25728676E2,5.6075487E0,8.737815E0,1.2091001E2,4.8186655E0,1.0338246E0,7.703991E0,1.1898757E2,1.9224415E0,3.6527438E0,1.1659214E0],"tree_param":{"num_deleted":"0","num_feature":"5","num_nodes":"13","size_leaf_vector":"1"}},{"base_weights":[-5.620164E-2,-5.007058E-1,6.545722E-2,-3.9428096E-2,-3.5089535E-1,2.685565E-2,7.4570423E-1,2.4800045E-2,-2.0842697E-2,2.4150354E-3,-3.8197752E-2,4.35283E-2,4.104011E-3],"categories":[],"categories_nodes":[],"categories_segments":[],"categories_sizes":[],"default_left":[0,0,0,0,0,0,0,0,0,0,0,0,0],"id":85,"left_children":[1,3,5,-1,7,9,11,-1,-1,-1,-1,-1,-1],"loss_changes":[7.5098968E0,1.0095348E0,2.8536947E0,0E0,1.4032209E0,1.8108053E0,4.1240716E-1,0E0,0E0,0E0,0E0,0E0,0E0],"parents":[2147483647,0,0,1,1,2,2,4,4,5,5,6,6],"right_children":[2,4,